{"learner":{"attributes":{"best_iteration":"14","best_score":"12.493992054265794","scikit_learn":"{\"_estimator_type\": \"regressor\"}"},"feature_names":["information content index (neighborhood symmetry of 0-order)","3D Petitjean shape index","structural information content index (neighborhood symmetry of 0-order)","Geary autocorrelation of lag 1 weighted by van der Waals volume","dipole moment","energy of the highest occupied molecular orbital","energy of the lowest occupied molecular orbital","chemical potential","hardness","electrophilicity index"],"feature_types":["float","float","float","float","float","float","float","float","float","float"],"gradient_booster":{"model":{"gbtree_model_param":{"num_parallel_tree":"1","num_trees":"20"},"iteration_indptr":[0,1,2,3,4,5,6,7,8,9,10,11,12,13,14,15,16,17,18,19,20],"tree_info":[0,0,0,0,0,0,0,0,0,0,0,0,0,0,0,0,0,0,0,0],"trees":[{"base_weights":[3.799796E-7,-2.4157844E0,1.1859307E1,-3.3766663E0,7.676191E0,2.0387757E0,6.9708576E0,-5.318911E0,1.0830361E0,1.1464291E0,5.069286E0,1.3015907E-1,8.328572E-1,-5.9735627E0,-1.8469384E0,2.9590478E0,-8.7585E-1,-7.057142E-1,9.2904776E-1,2.692858E-1,-2.107142E-1,-1.8217347E0,-4.8071423E-1,1.2634922E0,-1.0031428E0,-2.9897957E0,1.0833336E0,1.0192858E0,-4.5071426E-1,-3.0714227E-2,-1.0361905E0,5.388096E-1,-2.109523E-1],"categories":[],"categories_nodes":[],"categories_segments":[],"categories_sizes":[],"default_left":[0,0,0,0,0,0,0,0,0,0,0,0,0,0,0,0,0,0,0,0,0,0,0,0,0,0,0,0,0,0,0,0,0],"id":0,"left_children":[1,3,5,7,9,11,-1,13,15,17,-1,19,-1,21,23,-1,25,-1,-1,-1,-1,-1,-1,27,-1,29,31,-1,-1,-1,-1,-1,-1],"loss_changes":[1.8622197E3,5.495685E2,1.181624E3,4.388523E2,2.8169675E2,9.490747E0,0E0,6.8519775E1,2.8383755E2,3.458119E1,0E0,2.5472937E0,0E0,2.8048096E0,3.6816265E1,0E0,6.122145E1,0E0,0E0,0E0,0E0,0E0,0E0,2.281269E1,0E0,9.028191E0,1.1448852E1,0E0,0E0,0E0,0E0,0E0,0E0],"parents":[2147483647,0,0,1,1,2,2,3,3,4,4,5,5,7,7,8,8,9,9,11,11,13,13,14,14,16,16,23,23,25,25,26,26],"right_children":[2,4,6,8,10,12,-1,14,16,18,-1,20,-1,22,24,-1,26,-1,-1,-1,-1,-1,-1,28,-1,30,32,-1,-1,-1,-1,-1,-1],"split_conditions":[4.685E-1,9.4E-2,-2.69E-1,3.482E-1,-2.548E-1,9.102E-1,6.9708576E0,-9.39E-2,2E-4,8.631E-1,5.069286E0,1.3788E0,8.328572E-1,3.404E-1,-2.416E-1,2.9590478E0,3.822E-1,-7.057142E-1,9.2904776E-1,2.692858E-1,-2.107142E-1,-1.8217347E0,-4.8071423E-1,1.1216E0,-1.0031428E0,1.1589E0,1.3367E0,1.0192858E0,-4.5071426E-1,-3.0714227E-2,-1.0361905E0,5.388096E-1,-2.109523E-1],"split_indices":[2,6,5,2,5,3,0,7,4,0,0,0,0,2,5,0,2,0,0,0,0,0,0,0,0,0,3,0,0,0,0,0,0],"split_type":[0,0,0,0,0,0,0,0,0,0,0,0,0,0,0,0,0,0,0,0,0,0,0,0,0,0,0,0,0,0,0,0,0],"sum_hessian":[6.3E1,5.3E1,1E1,4.9E1,4E0,6E0,4E0,3.4E1,1.5E1,3E0,1E0,2E0,4E0,2.8E1,6E0,2E0,1.3E1,1E0,2E0,1E0,1E0,2.7E1,1E0,2E0,4E0,6E0,7E0,1E0,1E0,1E0,5E0,5E0,2E0],"tree_param":{"num_deleted":"0","num_feature":"10","num_nodes":"33","size_leaf_vector":"1"}},{"base_weights":[1.9746709E-1,-6.2200767E-1,7.7736573E0,-4.035475E0,1.5820613E0,-4.4252086E0,2.9764175E-1,3.0621925E-1,1.0196543E1,-1.3690469E0,-2.0745407E-1,8.663929E-1,-7.3245406E-1,-3.0135434E0,1.9533415E0,4.3550334E0,2.4774609E0,-9.4257015E-1,-2.4024267E-1,2.8254287E0,1.2193044E0,9.549287E-1,1.5992875E-1,-2.2382411E-1,1.0293559E0],"categories":[],"categories_nodes":[],"categories_segments":[],"categories_sizes":[],"default_left":[0,0,0,0,0,0,0,0,0,0,0,0,0,0,0,0,0,0,0,0,0,0,0,0,0],"id":1,"left_children":[1,3,-1,5,7,9,11,13,15,-1,-1,-1,-1,17,19,-1,21,-1,-1,-1,23,-1,-1,-1,-1],"loss_changes":[1.3647618E3,4.8036594E2,0E0,4.3536224E1,4.2551566E2,8.719147E0,2.8337019E1,1.972684E2,1.3077649E2,0E0,0E0,0E0,0E0,8.921814E-1,1.200222E2,0E0,2.419138E0,0E0,0E0,0E0,1.025455E2,0E0,0E0,0E0,0E0],"parents":[2147483647,0,0,1,1,3,3,4,4,5,5,6,6,7,7,8,8,13,13,14,14,16,16,20,20],"right_children":[2,4,-1,6,8,10,12,14,16,-1,-1,-1,-1,18,20,-1,22,-1,-1,-1,24,-1,-1,-1,-1],"split_conditions":[7.5E-1,2.966E-1,7.7736573E0,1.0925E0,3.344E-1,2.897E-1,1.1216E0,3.482E-1,1.2647E0,-1.3690469E0,-2.0745407E-1,8.663929E-1,-7.3245406E-1,4.898E-1,9.612E-1,4.3550334E0,1.2958E0,-9.4257015E-1,-2.4024267E-1,2.8254287E0,4.321E-1,9.549287E-1,1.5992875E-1,-2.2382411E-1,1.0293559E0],"split_indices":[2,2,0,4,8,2,0,2,0,0,0,0,0,1,0,0,0,0,0,0,2,0,0,0,0],"split_type":[0,0,0,0,0,0,0,0,0,0,0,0,0,0,0,0,0,0,0,0,0,0,0,0,0],"sum_hessian":[6.3E1,6.2E1,1E0,2.4E1,3.8E1,2.2E1,2E0,3.4E1,4E0,2.1E1,1E0,1E0,1E0,1.1E1,2.3E1,2E0,2E0,1E1,1E0,1E0,2.2E1,1E0,1E0,1.2E1,1E1],"tree_param":{"num_deleted":"0","num_feature":"10","num_nodes":"25","size_leaf_vector":"1"}},{"base_weights":[3.6086977E-1,-3.3261997E-1,6.607609E0,-2.8825347E0,1.3104695E0,-3.2458084E0,-1.638956E-1,2.8430054E-1,8.231558E0,-1.0033174E0,-1.76336E-1,7.364339E-1,-5.565142E-1,2.1070778E0,-3.3697754E-1,3.4840267E0,2.1058419E0,-2.2705855E0,1.8593924E0,8.1168944E-1,1.3593951E-1,-3.3874542E-1,-8.2416207E-1,1.2127905E-1,1.1017562E0],"categories":[],"categories_nodes":[],"categories_segments":[],"categories_sizes":[],"default_left":[0,0,0,0,0,0,0,0,0,0,0,0,0,0,0,0,0,0,0,0,0,0,0,0,0],"id":2,"left_children":[1,3,-1,5,7,9,11,13,15,-1,-1,-1,-1,-1,17,-1,19,21,23,-1,-1,-1,-1,-1,-1],"loss_changes":[9.688687E2,2.67731E2,0E0,2.415828E1,2.746458E2,3.7989655E0,2.226804E1,1.4891092E2,7.912567E1,0E0,0E0,0E0,0E0,0E0,1.4437021E2,0E0,1.7478266E0,6.690567E0,4.0728706E1,0E0,0E0,0E0,0E0,0E0,0E0],"parents":[2147483647,0,0,1,1,3,3,4,4,5,5,6,6,7,7,8,8,14,14,16,16,17,17,18,18],"right_children":[2,4,-1,6,8,10,12,14,16,-1,-1,-1,-1,-1,18,-1,20,22,24,-1,-1,-1,-1,-1,-1],"split_conditions":[7.5E-1,2.966E-1,6.607609E0,-9.39E-2,3.344E-1,2.804E-1,1.7E0,2E-4,1.2647E0,-1.0033174E0,-1.76336E-1,7.364339E-1,-5.565142E-1,2.1070778E0,3.822E-1,3.4840267E0,1.2958E0,2.3217399E-2,-2.69E-1,8.1168944E-1,1.3593951E-1,-3.3874542E-1,-8.2416207E-1,1.2127905E-1,1.1017562E0],"split_indices":[2,2,0,7,8,2,3,4,0,0,0,0,0,0,2,0,0,9,5,0,0,0,0,0,0],"split_type":[0,0,0,0,0,0,0,0,0,0,0,0,0,0,0,0,0,0,0,0,0,0,0,0,0],"sum_hessian":[6.3E1,6.2E1,1E0,2.4E1,3.8E1,2.1E1,3E0,3.4E1,4E0,2E1,1E0,1E0,2E0,2E0,3.2E1,2E0,2E0,1.7E1,1.5E1,1E0,1E0,6E0,1.1E1,9E0,6E0],"tree_param":{"num_deleted":"0","num_feature":"10","num_nodes":"25","size_leaf_vector":"1"}},{"base_weights":[4.4333932E-1,-1.439587E-1,5.6164675E0,-2.0577633E0,1.0865303E0,-2.2813022E0,3.419571E-1,6.2485347E0,1.4363162E-1,-2.575704E0,-1.0178801E0,6.2596893E-1,-4.7208825E-1,-8.4102E-2,9.435879E0,-1.653953E0,2.0385075E0,-3.5610053E-1,-8.3229333E-1,-1.0213242E-1,-3.8144672E-1,-1.5339446E-1,1.15548566E-1,3.4790578E0,4.4294044E-1,-3.1459546E-1,-1.9008515E0,4.578068E0,5.988519E-1,-1.6377975E-1,5.691233E-2,-2.9196894E-1,-7.7726E-1,1.5053946E0,3.5677457E-1,1.0118583E0,-8.797082E-2],"categories":[],"categories_nodes":[],"categories_segments":[],"categories_sizes":[],"default_left":[0,0,0,0,0,0,0,0,0,0,0,0,0,0,0,0,0,0,0,0,0,0,0,0,0,0,0,0,0,0,0,0,0,0,0,0,0],"id":3,"left_children":[1,3,-1,5,7,9,11,13,15,17,19,-1,-1,21,23,25,27,-1,-1,-1,-1,-1,-1,-1,-1,29,31,33,35,-1,-1,-1,-1,-1,-1,-1,-1],"loss_changes":[6.897199E2,1.5059549E2,0E0,1.4190895E1,1.8892513E2,5.933174E0,1.3309293E1,1.2189931E2,1.1918239E2,1.671402E0,5.979595E-1,0E0,0E0,7.983657E-1,5.167816E1,5.354336E0,5.9411987E1,0E0,0E0,0E0,0E0,0E0,0E0,0E0,0E0,5.7022357E-1,7.079586E0,2.9771194E0,3.0684969E1,0E0,0E0,0E0,0E0,0E0,0E0,0E0,0E0],"parents":[2147483647,0,0,1,1,3,3,4,4,5,5,6,6,7,7,8,8,9,9,10,10,13,13,14,14,15,15,16,16,25,25,26,26,27,27,28,28],"right_children":[2,4,-1,6,8,10,12,14,16,18,20,-1,-1,22,24,26,28,-1,-1,-1,-1,-1,-1,-1,-1,30,32,34,36,-1,-1,-1,-1,-1,-1,-1,-1],"split_conditions":[7.5E-1,2.966E-1,5.6164675E0,1.0925E0,1.1135E0,2.562E-1,1.1216E0,8.720505E-3,3.9E-1,8.74E-1,2.789E-1,6.2596893E-1,-4.7208825E-1,1.1568E0,1.1981E0,-1.266E-2,1.9869E0,-3.5610053E-1,-8.3229333E-1,-1.0213242E-1,-3.8144672E-1,-1.5339446E-1,1.15548566E-1,3.4790578E0,4.4294044E-1,1.325E0,2.3968516E-2,-2.572E-1,-5.94E-2,-1.6377975E-1,5.691233E-2,-2.9196894E-1,-7.7726E-1,1.5053946E0,3.5677457E-1,1.0118583E0,-8.797082E-2],"split_indices":[2,2,0,4,4,2,0,9,2,0,2,0,0,0,0,6,4,0,0,0,0,0,0,0,0,0,9,5,6,0,0,0,0,0,0,0,0],"split_type":[0,0,0,0,0,0,0,0,0,0,0,0,0,0,0,0,0,0,0,0,0,0,0,0,0,0,0,0,0,0,0,0,0,0,0,0,0],"sum_hessian":[6.3E1,6.2E1,1E0,2.4E1,3.8E1,2.2E1,2E0,5E0,3.3E1,1.7E1,5E0,1E0,1E0,2E0,3E0,1.7E1,1.6E1,3E0,1.4E1,2E0,3E0,1E0,1E0,2E0,1E0,3E0,1.4E1,5E0,1.1E1,2E0,1E0,7E0,7E0,4E0,1E0,2E0,9E0],"tree_param":{"num_deleted":"0","num_feature":"10","num_nodes":"37","size_leaf_vector":"1"}},{"base_weights":[4.602203E-1,-3.7659515E-2,4.7739973E0,-1.5011579E0,9.0144604E-1,-1.7198968E0,7.719588E-2,5.021333E0,1.4789404E-1,-1.369992E0,-6.821939E-1,5.320736E-1,-3.2383737E-1,-7.148647E-2,7.5856147E0,-1.2231057E0,1.5908412E0,-1.6672213E0,-3.8264352E-1,-1.3038526E-1,9.821635E-2,2.7832465E0,3.7649947E-1,-1.3996925E0,1.2639268E-1,2.149498E-1,3.1118503E0,-5.680718E-1,-2.914845E-1,-3.1279422E-2,-1.278516E-1,-2.2276133E-1,-5.89209E-1,8.501244E-3,4.8375465E-2,3.6060697E-1,-5.4621436E-2,1.4066033E0,1.0885585E-1],"categories":[],"categories_nodes":[],"categories_segments":[],"categories_sizes":[],"default_left":[0,0,0,0,0,0,0,0,0,0,0,0,0,0,0,0,0,0,0,0,0,0,0,0,0,0,0,0,0,0,0,0,0,0,0,0,0,0,0],"id":4,"left_children":[1,3,-1,5,7,9,11,13,15,17,-1,-1,-1,19,21,23,25,27,29,-1,-1,-1,-1,31,33,35,37,-1,-1,-1,-1,-1,-1,-1,-1,-1,-1,-1,-1],"loss_changes":[4.9300177E2,8.7939125E1,0E0,8.763954E0,1.203348E2,1.1499329E0,9.763014E0,7.88988E1,6.920729E1,4.0575485E0,0E0,0E0,0E0,5.7681936E-1,3.1199158E1,4.4663773E0,3.490774E1,4.959488E-2,1.6152382E-2,0E0,0E0,0E0,0E0,4.4753475E0,5.684819E-3,4.137745E0,3.2976265E1,0E0,0E0,0E0,0E0,0E0,0E0,0E0,0E0,0E0,0E0,0E0,0E0],"parents":[2147483647,0,0,1,1,3,3,4,4,5,5,6,6,7,7,8,8,9,9,13,13,14,14,15,15,16,16,17,17,18,18,23,23,24,24,25,25,26,26],"right_children":[2,4,-1,6,8,10,12,14,16,18,-1,-1,-1,20,22,24,26,28,30,-1,-1,-1,-1,32,34,36,38,-1,-1,-1,-1,-1,-1,-1,-1,-1,-1,-1,-1],"split_conditions":[7.5E-1,2.966E-1,4.7739973E0,-9.39E-2,1.1135E0,9.612E-1,1.7E0,8.720505E-3,3.9E-1,-2.849E-1,-6.821939E-1,5.320736E-1,-3.2383737E-1,1.1568E0,1.1981E0,1.371E0,-2.69E-1,2.202E-1,1E-4,-1.3038526E-1,9.821635E-2,2.7832465E0,3.7649947E-1,1.2516E0,1.3996E0,1.9897E0,-2.558E-1,-5.680718E-1,-2.914845E-1,-3.1279422E-2,-1.278516E-1,-2.2276133E-1,-5.89209E-1,8.501244E-3,4.8375465E-2,3.6060697E-1,-5.4621436E-2,1.4066033E0,1.0885585E-1],"split_indices":[2,2,0,7,4,0,3,9,2,5,0,0,0,0,0,0,5,2,4,0,0,0,0,0,0,4,5,0,0,0,0,0,0,0,0,0,0,0,0],"split_type":[0,0,0,0,0,0,0,0,0,0,0,0,0,0,0,0,0,0,0,0,0,0,0,0,0,0,0,0,0,0,0,0,0,0,0,0,0,0,0],"sum_hessian":[6.3E1,6.2E1,1E0,2.4E1,3.8E1,2.1E1,3E0,5E0,3.3E1,1.5E1,6E0,1E0,2E0,2E0,3E0,1.7E1,1.6E1,1.1E1,4E0,1E0,1E0,2E0,1E0,1.5E1,2E0,9E0,7E0,7E0,4E0,1E0,3E0,8E0,7E0,1E0,1E0,2E0,7E0,4E0,3E0],"tree_param":{"num_deleted":"0","num_feature":"10","num_nodes":"39","size_leaf_vector":"1"}},{"base_weights":[4.3895534E-1,1.651574E-2,4.0578976E0,-2.5168025E-1,3.1779253E0,-1.083767E0,9.2330843E-1,3.1625962E-1,2.1936884E0,-1.2853395E0,-4.5130205E-1,2.6614347E0,9.9513024E-2,-1.4686461E-1,2.2441359E-1,-1.3275628E0,-3.4463026E-2,7.5236034E-1,-8.462627E-1,1.3871982E0,5.5910015E-1,1.3978722E0,-6.6615593E-1,-4.948282E-1,-3.1302747E-1,4.5226252E-1,-1.13700345E-1,-3.8161013E-1,-1.4770003E-1,-3.2311738E-1,3.7122124E-1,5.614281E-4,5.867695E-1,-6.741388E-2,-5.746742E-1],"categories":[],"categories_nodes":[],"categories_segments":[],"categories_sizes":[],"default_left":[0,0,0,0,0,0,0,0,0,0,0,0,0,0,0,0,0,0,0,0,0,0,0,0,0,0,0,0,0,0,0,0,0,0,0],"id":5,"left_children":[1,3,-1,5,7,9,11,13,-1,15,17,19,21,-1,-1,23,-1,25,27,-1,29,31,33,-1,-1,-1,-1,-1,-1,-1,-1,-1,-1,-1,-1],"loss_changes":[3.536085E2,5.421609E1,0E0,5.868451E1,5.684332E1,3.8819847E0,3.553166E1,1.7579504E0,0E0,1.1324425E0,5.390687E0,3.042237E1,1.8825241E1,0E0,0E0,5.6529236E-1,0E0,3.1345096E0,5.7927847E-1,0E0,6.8818183E0,5.4493732E0,6.188141E0,0E0,0E0,0E0,0E0,0E0,0E0,0E0,0E0,0E0,0E0,0E0,0E0],"parents":[2147483647,0,0,1,1,3,3,4,4,5,5,6,6,7,7,9,9,10,10,11,11,12,12,15,15,17,17,18,18,20,20,21,21,22,22],"right_children":[2,4,-1,6,8,10,12,14,-1,16,18,20,22,-1,-1,24,-1,26,28,-1,30,32,34,-1,-1,-1,-1,-1,-1,-1,-1,-1,-1,-1,-1],"split_conditions":[7.5E-1,9.4E-2,4.0578976E0,3.482E-1,-2.548E-1,-9.77E-2,1.7325E0,8.631E-1,2.1936884E0,3.348E-1,-2.416E-1,-2.572E-1,-1.4095E-1,-1.4686461E-1,2.2441359E-1,1.73E-2,-3.4463026E-2,1.1216E0,2.5E-1,1.3871982E0,8.522E-1,1.4056E0,-2.674E-1,-4.948282E-1,-3.1302747E-1,4.5226252E-1,-1.13700345E-1,-3.8161013E-1,-1.4770003E-1,-3.2311738E-1,3.7122124E-1,5.614281E-4,5.867695E-1,-6.741388E-2,-5.746742E-1],"split_indices":[2,6,0,2,5,7,4,0,0,2,5,5,7,0,0,6,0,0,2,0,3,0,5,0,0,0,0,0,0,0,0,0,0,0,0],"split_type":[0,0,0,0,0,0,0,0,0,0,0,0,0,0,0,0,0,0,0,0,0,0,0,0,0,0,0,0,0,0,0,0,0,0,0],"sum_hessian":[6.3E1,6.2E1,1E0,5.8E1,4E0,3.4E1,2.4E1,3E0,1E0,2.5E1,9E0,7E0,1.7E1,1E0,2E0,2.4E1,1E0,2E0,7E0,3E0,4E0,6E0,1.1E1,9E0,1.5E1,1E0,1E0,2E0,5E0,1E0,3E0,2E0,4E0,9E0,2E0],"tree_param":{"num_deleted":"0","num_feature":"10","num_nodes":"35","size_leaf_vector":"1"}},{"base_weights":[4.1159087E-1,5.3128023E-2,3.4492128E0,-1.7028664E-1,2.6787953E0,-7.881531E-1,7.015379E-1,2.4076915E-1,1.8646351E0,-1.1092443E0,-4.918725E-1,-1.2919581E0,1.1427733E0,-1.2483487E-1,5.9843636E-1,-4.128292E-1,-2.0111385E-1,3.8442308E-1,-6.5264577E-1,8.779865E-2,-5.283837E-1,2.595762E0,3.8852692E-1,2.1947451E-1,4.9821857E-2,-1.0134951E-1,-2.706586E-1,1.0750787E0,2.876964E-1,7.032057E-1,2.4425698E-2],"categories":[],"categories_nodes":[],"categories_segments":[],"categories_sizes":[],"default_left":[0,0,0,0,0,0,0,0,0,0,0,0,0,0,0,0,0,0,0,0,0,0,0,0,0,0,0,0,0,0,0],"id":6,"left_children":[1,3,-1,5,7,9,11,13,-1,15,17,19,21,-1,23,-1,-1,-1,25,-1,-1,27,29,-1,-1,-1,-1,-1,-1,-1,-1],"loss_changes":[2.5371504E2,3.7412754E1,0E0,3.233452E1,4.16158E1,2.784052E0,2.3466438E1,1.1888046E0,0E0,9.5129013E-1,6.5382376E0,4.2339334E0,2.200562E1,0E0,5.1205635E-2,0E0,0E0,0E0,1.1878815E0,0E0,0E0,7.8813972E0,8.817359E0,0E0,0E0,0E0,0E0,0E0,0E0,0E0,0E0],"parents":[2147483647,0,0,1,1,3,3,4,4,5,5,6,6,7,7,9,9,10,10,11,11,12,12,14,14,18,18,21,21,22,22],"right_children":[2,4,-1,6,8,10,12,14,-1,16,18,20,22,-1,24,-1,-1,-1,26,-1,-1,28,30,-1,-1,-1,-1,-1,-1,-1,-1],"split_conditions":[7.5E-1,9.4E-2,3.4492128E0,3.482E-1,-2.548E-1,2.54E-1,9.102E-1,8.631E-1,1.8646351E0,3.777E-1,2.551E-1,2.517E-1,1.7325E0,-1.2483487E-1,1.2958E0,-4.128292E-1,-2.0111385E-1,3.8442308E-1,2.3217399E-2,8.779865E-2,-5.283837E-1,-2.572E-1,-6.39E-2,2.1947451E-1,4.9821857E-2,-1.0134951E-1,-2.706586E-1,1.0750787E0,2.876964E-1,7.032057E-1,2.4425698E-2],"split_indices":[2,6,0,2,5,2,3,0,0,8,2,1,4,0,0,0,0,0,9,0,0,5,6,0,0,0,0,0,0,0,0],"split_type":[0,0,0,0,0,0,0,0,0,0,0,0,0,0,0,0,0,0,0,0,0,0,0,0,0,0,0,0,0,0,0],"sum_hessian":[6.3E1,6.2E1,1E0,5.8E1,4E0,3.4E1,2.4E1,3E0,1E0,1.5E1,1.9E1,4E0,2E1,1E0,2E0,8E0,7E0,1E0,1.8E1,1E0,3E0,6E0,1.4E1,1E0,1E0,9E0,9E0,3E0,3E0,1E0,1.3E1],"tree_param":{"num_deleted":"0","num_feature":"10","num_nodes":"31","size_leaf_vector":"1"}},{"base_weights":[3.8977936E-1,8.5719675E-2,2.9318311E0,-1.0143289E-1,2.276976E0,-3.5495535E-1,1.1763227E0,2.0465374E-1,1.5849398E0,8.7853426E-1,-5.115327E-1,2.6405007E-1,7.436158E-1,-1.0610963E-1,5.086708E-1,-3.4561932E-1,6.653683E-1,-5.9728897E-1,1.4543073E-1,2.1106304E-1,-2.414558E-1,1.865533E-1,4.234858E-2,-1.4542776E-1,1.0770035E-2,-3.290864E-1,-1.3741748E-1,-5.2472595E-3,9.4254784E-2,-2.4094377E-1,6.404686E-2],"categories":[],"categories_nodes":[],"categories_segments":[],"categories_sizes":[],"default_left":[0,0,0,0,0,0,0,0,0,0,0,0,0,0,0,0,0,0,0,0,0,0,0,0,0,0,0,0,0,0,0],"id":7,"left_children":[1,3,-1,5,7,9,11,13,-1,15,17,19,-1,-1,21,23,-1,25,27,-1,29,-1,-1,-1,-1,-1,-1,-1,-1,-1,-1],"loss_changes":[1.817536E2,2.6067213E1,0E0,1.9529987E1,3.0067413E1,1.0106226E1,1.1226901E1,8.5891086E-1,0E0,1.060404E1,2.6221056E0,1.72504E0,0E0,0E0,3.6996067E-2,2.2974116E-1,0E0,2.280283E0,1.7045526E-1,0E0,1.1936163E0,0E0,0E0,0E0,0E0,0E0,0E0,0E0,0E0,0E0,0E0],"parents":[2147483647,0,0,1,1,3,3,4,4,5,5,6,6,7,7,9,9,10,10,11,11,14,14,15,15,17,17,18,18,20,20],"right_children":[2,4,-1,6,8,10,12,14,-1,16,18,20,-1,-1,22,24,-1,26,28,-1,30,-1,-1,-1,-1,-1,-1,-1,-1,-1,-1],"split_conditions":[7.5E-1,9.4E-2,2.9318311E0,4.685E-1,-2.548E-1,2E-4,-2.69E-1,8.631E-1,1.5849398E0,2.796E-1,1.371E0,2.0373E0,7.436158E-1,-1.0610963E-1,1.2958E0,2.257E-1,6.653683E-1,1.2267E0,-2.674E-1,2.1106304E-1,3.014E-1,1.865533E-1,4.234858E-2,-1.4542776E-1,1.0770035E-2,-3.290864E-1,-1.3741748E-1,-5.2472595E-3,9.4254784E-2,-2.4094377E-1,6.404686E-2],"split_indices":[2,6,0,2,5,4,5,0,0,2,0,4,0,0,0,1,0,3,5,0,1,0,0,0,0,0,0,0,0,0,0],"split_type":[0,0,0,0,0,0,0,0,0,0,0,0,0,0,0,0,0,0,0,0,0,0,0,0,0,0,0,0,0,0,0],"sum_hessian":[6.3E1,6.2E1,1E0,5.8E1,4E0,4.9E1,9E0,3E0,1E0,5E0,4.4E1,6E0,3E0,1E0,2E0,3E0,2E0,3.9E1,5E0,3E0,3E0,1E0,1E0,2E0,1E0,7E0,3.2E1,3E0,2E0,1E0,2E0],"tree_param":{"num_deleted":"0","num_feature":"10","num_nodes":"31","size_leaf_vector":"1"}},{"base_weights":[3.5988557E-1,1.01888396E-1,2.4920564E0,-5.5223383E-2,1.9354298E0,-4.4370508E-1,4.216329E-1,1.7395544E-1,1.3471991E0,-3.1145892E-1,-3.496494E-1,-7.0963424E-1,7.1099514E-1,-9.019318E-2,4.3236986E-1,-7.5007755E-1,-1.4231938E-1,4.2969275E-2,-9.088534E-1,1.5827954E0,1.9863535E-1,1.585702E-1,3.5996247E-2,-5.203829E-2,-2.3846178E-1,-1.001184E-1,6.313068E-2,2.4872303E-3,-3.4206367E-1,6.909451E-1,2.0698576E-1,4.861825E-1,-5.6075645E-3],"categories":[],"categories_nodes":[],"categories_segments":[],"categories_sizes":[],"default_left":[0,0,0,0,0,0,0,0,0,0,0,0,0,0,0,0,0,0,0,0,0,0,0,0,0,0,0,0,0,0,0,0,0],"id":8,"left_children":[1,3,-1,5,7,9,11,13,-1,-1,15,17,19,-1,21,23,25,-1,27,29,31,-1,-1,-1,-1,-1,-1,-1,-1,-1,-1,-1,-1],"loss_changes":[1.3037256E2,1.8255352E1,0E0,1.1116827E1,2.1723717E1,1.4821992E0,9.342889E0,6.205627E-1,0E0,0E0,2.3838727E0,1.1496186E0,9.51246E0,0E0,2.6729643E-2,1.2041664E-1,1.4881551E0,0E0,1.0703998E0,3.5562458E0,4.6657944E0,0E0,0E0,0E0,0E0,0E0,0E0,0E0,0E0,0E0,0E0,0E0,0E0],"parents":[2147483647,0,0,1,1,3,3,4,4,5,5,6,6,7,7,10,10,11,11,12,12,14,14,15,15,16,16,18,18,19,19,20,20],"right_children":[2,4,-1,6,8,10,12,14,-1,-1,16,18,20,-1,22,24,26,-1,28,30,32,-1,-1,-1,-1,-1,-1,-1,-1,-1,-1,-1,-1],"split_conditions":[7.5E-1,9.4E-2,2.4920564E0,3.348E-1,-2.548E-1,2.039E-1,9.102E-1,8.631E-1,1.3471991E0,-3.1145892E-1,1.73E-2,2.517E-1,1.8211E0,-9.019318E-2,1.2958E0,-2.676E-1,4.701E-1,4.2969275E-2,1.2988E0,-1.23E-1,-6.39E-2,1.585702E-1,3.5996247E-2,-5.203829E-2,-2.3846178E-1,-1.001184E-1,6.313068E-2,2.4872303E-3,-3.4206367E-1,6.909451E-1,2.0698576E-1,4.861825E-1,-5.6075645E-3],"split_indices":[2,6,0,2,5,2,3,0,0,0,6,1,4,0,0,5,1,0,0,7,6,0,0,0,0,0,0,0,0,0,0,0,0],"split_type":[0,0,0,0,0,0,0,0,0,0,0,0,0,0,0,0,0,0,0,0,0,0,0,0,0,0,0,0,0,0,0,0,0],"sum_hessian":[6.3E1,6.2E1,1E0,5.8E1,4E0,3.2E1,2.6E1,3E0,1E0,3E0,2.9E1,5E0,2.1E1,1E0,2E0,9E0,2E1,1E0,4E0,7E0,1.4E1,1E0,1E0,1E0,8E0,1.3E1,7E0,1E0,3E0,3E0,4E0,1E0,1.3E1],"tree_param":{"num_deleted":"0","num_feature":"10","num_nodes":"33","size_leaf_vector":"1"}},{"base_weights":[3.2046026E-1,1.0139375E-1,2.1182477E0,-3.1148659E-2,1.6451155E0,-1.8181342E-1,7.2529E-1,1.478622E-1,1.1451193E0,6.2688667E-1,-2.855998E-1,2.0167911E-1,5.639467E-1,-7.666426E-2,3.675146E-1,5.7341826E-1,-1.2293625E-2,-2.1356657E-1,-2.9116464E-1,-2.599306E-1,3.988708E-1,1.347848E-1,3.0596782E-2,-8.2484156E-2,7.6337345E-2,-8.47615E-2,7.420612E-2,3.652382E-2,-1.534926E-1,1.472603E-1,-9.167004E-3],"categories":[],"categories_nodes":[],"categories_segments":[],"categories_sizes":[],"default_left":[0,0,0,0,0,0,0,0,0,0,0,0,0,0,0,0,0,0,0,0,0,0,0,0,0,0,0,0,0,0,0],"id":9,"left_children":[1,3,-1,5,7,9,11,13,-1,15,17,19,-1,-1,21,-1,23,25,-1,27,29,-1,-1,-1,-1,-1,-1,-1,-1,-1,-1],"loss_changes":[9.378573E1,1.2941586E1,0E0,6.8560176E0,1.5695388E1,4.3756413E0,5.6661367E0,4.4835714E-1,0E0,4.949689E0,2.012982E0,8.3188355E-1,0E0,0E0,1.9312471E-2,0E0,4.2027846E-1,1.405087E0,0E0,3.5050744E-1,2.5203502E-1,0E0,0E0,0E0,0E0,0E0,0E0,0E0,0E0,0E0,0E0],"parents":[2147483647,0,0,1,1,3,3,4,4,5,5,6,6,7,7,9,9,10,10,11,11,14,14,16,16,17,17,19,19,20,20],"right_children":[2,4,-1,6,8,10,12,14,-1,16,18,20,-1,-1,22,-1,24,26,-1,28,30,-1,-1,-1,-1,-1,-1,-1,-1,-1,-1],"split_conditions":[7.5E-1,9.4E-2,2.1182477E0,4.685E-1,-2.548E-1,2E-4,-2.585E-1,8.631E-1,1.1451193E0,-1.23E-1,4.961E-1,9.102E-1,5.639467E-1,-7.666426E-2,1.2958E0,5.7341826E-1,2.257E-1,3.9E-1,-2.9116464E-1,1.3788E0,4.318E-1,1.347848E-1,3.0596782E-2,-8.2484156E-2,7.6337345E-2,-8.47615E-2,7.420612E-2,3.652382E-2,-1.534926E-1,1.472603E-1,-9.167004E-3],"split_indices":[2,6,0,2,5,4,5,0,0,7,1,3,0,0,0,0,1,2,0,0,1,0,0,0,0,0,0,0,0,0,0],"split_type":[0,0,0,0,0,0,0,0,0,0,0,0,0,0,0,0,0,0,0,0,0,0,0,0,0,0,0,0,0,0,0],"sum_hessian":[6.3E1,6.2E1,1E0,5.8E1,4E0,4.9E1,9E0,3E0,1E0,5E0,4.4E1,7E0,2E0,1E0,2E0,1E0,4E0,4.1E1,3E0,2E0,5E0,1E0,1E0,2E0,2E0,3.6E1,5E0,1E0,1E0,4E0,1E0],"tree_param":{"num_deleted":"0","num_feature":"10","num_nodes":"31","size_leaf_vector":"1"}},{"base_weights":[2.8998953E-1,1.0406235E-1,1.8005105E0,-7.386668E-3,1.3983482E0,-2.4027301E-1,2.7752578E-1,1.2568283E-1,9.7335154E-1,-4.242818E-1,-6.336114E-2,9.88392E-1,2.7354853E-2,-6.516466E-2,3.1238747E-1,-5.845883E-1,-1.9090182E-1,3.5061666E-1,-2.0458499E-1,5.010025E-1,5.967784E-2,-1.4359058E-1,7.897706E-1,1.1456709E-1,2.6007272E-2,-5.541952E-2,-2.2611839E-1,-6.70681E-3,-6.3535824E-2,-1.2225594E-2,-1.2984315E-1,-8.20055E-2,7.854147E-2,-2.6927197E-1,-1.3932072E-2,3.2866287E-1,9.6799664E-2],"categories":[],"categories_nodes":[],"categories_segments":[],"categories_sizes":[],"default_left":[0,0,0,0,0,0,0,0,0,0,0,0,0,0,0,0,0,0,0,0,0,0,0,0,0,0,0,0,0,0,0,0,0,0,0,0,0],"id":10,"left_children":[1,3,-1,5,7,9,11,13,-1,15,17,19,21,-1,23,25,27,-1,29,-1,31,33,35,-1,-1,-1,-1,-1,-1,-1,-1,-1,-1,-1,-1,-1,-1],"loss_changes":[6.734106E1,9.097883E0,0E0,3.981463E0,1.1339921E1,1.0473775E0,4.7745905E0,3.2393825E-1,0E0,4.8699808E-1,3.371095E0,4.331524E0,2.8503652E0,0E0,1.3953239E-2,4.6944666E-1,2.3424923E-2,0E0,6.180068E-1,0E0,3.408219E-1,1.2768106E0,2.1781707E-1,0E0,0E0,0E0,0E0,0E0,0E0,0E0,0E0,0E0,0E0,0E0,0E0,0E0,0E0],"parents":[2147483647,0,0,1,1,3,3,4,4,5,5,6,6,7,7,9,9,10,10,11,11,12,12,14,14,15,15,16,16,18,18,20,20,21,21,22,22],"right_children":[2,4,-1,6,8,10,12,14,-1,16,18,20,22,-1,24,26,28,-1,30,-1,32,34,36,-1,-1,-1,-1,-1,-1,-1,-1,-1,-1,-1,-1,-1,-1],"split_conditions":[7.5E-1,9.4E-2,1.8005105E0,3.348E-1,-2.548E-1,2.54E-1,1.647E0,8.631E-1,9.7335154E-1,8.53E-2,2.551E-1,-2.496E-1,6.4038604E-2,-6.516466E-2,1.2958E0,-1.099E-1,2.189E-1,3.5061666E-1,2.89835E-2,5.010025E-1,8.522E-1,8.467E-1,1.4343E0,1.1456709E-1,2.6007272E-2,-5.541952E-2,-2.2611839E-1,-6.70681E-3,-6.3535824E-2,-1.2225594E-2,-1.2984315E-1,-8.20055E-2,7.854147E-2,-2.6927197E-1,-1.3932072E-2,3.2866287E-1,9.6799664E-2],"split_indices":[2,6,0,2,5,2,4,0,0,6,2,5,9,0,0,7,1,0,9,0,3,3,0,0,0,0,0,0,0,0,0,0,0,0,0,0,0],"split_type":[0,0,0,0,0,0,0,0,0,0,0,0,0,0,0,0,0,0,0,0,0,0,0,0,0,0,0,0,0,0,0,0,0,0,0,0,0],"sum_hessian":[6.3E1,6.2E1,1E0,5.8E1,4E0,3.2E1,2.6E1,3E0,1E0,1.5E1,1.7E1,6E0,2E1,1E0,2E0,8E0,7E0,1E0,1.6E1,3E0,3E0,1.7E1,3E0,1E0,1E0,3E0,5E0,1E0,6E0,1E1,6E0,1E0,2E0,1E0,1.6E1,1E0,2E0],"tree_param":{"num_deleted":"0","num_feature":"10","num_nodes":"37","size_leaf_vector":"1"}},{"base_weights":[2.5527126E-1,9.737252E-2,1.5304339E0,3.2455395E-3,1.1885964E0,-9.255477E-2,4.8192254E-1,1.068306E-1,8.2734895E-1,4.6157113E-1,-1.6438144E-1,1.421647E-1,3.6819077E-1,-5.5389978E-2,2.6552963E-1,4.122551E-1,4.2119026E-3,-1.0513076E-1,-6.173608E-1,1.0391871E-1,-1.4866519E-1,9.7382076E-2,2.2106268E-2,-5.233226E-2,5.443821E-2,-1.9905725E-1,-1.784453E-2,-6.742682E-2,-2.4125357E-1,-1.2837882E-1,2.6119806E-2],"categories":[],"categories_nodes":[],"categories_segments":[],"categories_sizes":[],"default_left":[0,0,0,0,0,0,0,0,0,0,0,0,0,0,0,0,0,0,0,0,0,0,0,0,0,0,0,0,0,0,0],"id":11,"left_children":[1,3,-1,5,7,9,11,13,-1,15,17,19,-1,-1,21,-1,23,25,27,-1,29,-1,-1,-1,-1,-1,-1,-1,-1,-1,-1],"loss_changes":[4.8476376E1,6.4670987E0,0E0,2.7501907E0,8.193094E0,2.0659251E0,2.358008E0,2.3404571E-1,0E0,2.4985628E0,1.1428665E0,5.266688E-1,0E0,0E0,1.0081038E-2,0E0,1.899841E-1,1.0056264E0,1.8598354E-1,0E0,3.0058324E-1,0E0,0E0,0E0,0E0,0E0,0E0,0E0,0E0,0E0,0E0],"parents":[2147483647,0,0,1,1,3,3,4,4,5,5,6,6,7,7,9,9,10,10,11,11,14,14,16,16,17,17,18,18,20,20],"right_children":[2,4,-1,6,8,10,12,14,-1,16,18,20,-1,-1,22,-1,24,26,28,-1,30,-1,-1,-1,-1,-1,-1,-1,-1,-1,-1],"split_conditions":[7.5E-1,9.4E-2,1.5304339E0,4.685E-1,-2.548E-1,2E-4,-2.585E-1,8.631E-1,8.2734895E-1,-1.23E-1,4.953E-1,1.4591E0,3.6819077E-1,-5.5389978E-2,1.2958E0,4.122551E-1,2.257E-1,3.146E-1,8.936E-1,1.0391871E-1,3.014E-1,9.7382076E-2,2.2106268E-2,-5.233226E-2,5.443821E-2,-1.9905725E-1,-1.784453E-2,-6.742682E-2,-2.4125357E-1,-1.2837882E-1,2.6119806E-2],"split_indices":[2,6,0,2,5,4,5,0,0,7,1,0,0,0,0,0,1,1,0,0,1,0,0,0,0,0,0,0,0,0,0],"split_type":[0,0,0,0,0,0,0,0,0,0,0,0,0,0,0,0,0,0,0,0,0,0,0,0,0,0,0,0,0,0,0],"sum_hessian":[6.3E1,6.2E1,1E0,5.8E1,4E0,4.9E1,9E0,3E0,1E0,5E0,4.4E1,7E0,2E0,1E0,2E0,1E0,4E0,4E1,4E0,4E0,3E0,1E0,1E0,2E0,2E0,2E0,3.8E1,2E0,2E0,1E0,2E0],"tree_param":{"num_deleted":"0","num_feature":"10","num_nodes":"31","size_leaf_vector":"1"}},{"base_weights":[2.2057275E-1,8.6415894E-2,1.3008683E0,6.6553857E-3,1.0103067E0,-2.7993798E-1,1.107199E-1,9.0806246E-2,7.0324636E-1,-1.741995E-1,-1.6608107E-1,5.502143E-1,1.2701653E-2,-4.7081426E-2,2.2570038E-1,-3.0364534E-1,9.3642905E-2,1.0154724E-2,4.340786E-1,-1.7243318E-1,2.957283E-1,8.277483E-2,1.8790342E-2,-1.6155417E-1,-6.2091764E-2,-1.0457862E-2,9.11479E-2,2.963482E-2,-6.49478E-2,-1.4427643E-1,-2.223605E-3,1.7615216E-2,2.2740202E-1],"categories":[],"categories_nodes":[],"categories_segments":[],"categories_sizes":[],"default_left":[0,0,0,0,0,0,0,0,0,0,0,0,0,0,0,0,0,0,0,0,0,0,0,0,0,0,0,0,0,0,0,0,0],"id":12,"left_children":[1,3,-1,5,7,9,11,13,-1,15,-1,17,19,-1,21,23,25,27,-1,29,31,-1,-1,-1,-1,-1,-1,-1,-1,-1,-1,-1,-1],"loss_changes":[3.4962452E1,4.6357465E0,0E0,1.7906225E0,5.919503E0,3.6655414E-1,1.888464E0,1.6909799E-1,0E0,4.7915834E-1,0E0,3.8595402E0,1.989723E0,0E0,7.2835684E-3,9.289104E-2,1.4563666E-1,1.4190957E-1,0E0,1.1672983E0,1.5989672E0,0E0,0E0,0E0,0E0,0E0,0E0,0E0,0E0,0E0,0E0,0E0,0E0],"parents":[2147483647,0,0,1,1,3,3,4,4,5,5,6,6,7,7,9,9,11,11,12,12,14,14,15,15,16,16,17,17,19,19,20,20],"right_children":[2,4,-1,6,8,10,12,14,-1,16,-1,18,20,-1,22,24,26,28,-1,30,32,-1,-1,-1,-1,-1,-1,-1,-1,-1,-1,-1,-1],"split_conditions":[7.5E-1,9.4E-2,1.3008683E0,2.54E-1,-2.548E-1,9.911E-1,1.1216E0,8.631E-1,7.0324636E-1,2.202E-1,-1.6608107E-1,2.782E-1,1.371E0,-4.7081426E-2,1.2958E0,1.96E-1,2.35E-1,1E0,4.340786E-1,-1.264E-1,-2.611E-1,8.277483E-2,1.8790342E-2,-1.6155417E-1,-6.2091764E-2,-1.0457862E-2,9.11479E-2,2.963482E-2,-6.49478E-2,-1.4427643E-1,-2.223605E-3,1.7615216E-2,2.2740202E-1],"split_indices":[2,6,0,2,5,0,0,0,0,2,0,8,0,0,0,2,2,0,0,7,5,0,0,0,0,0,0,0,0,0,0,0,0],"split_type":[0,0,0,0,0,0,0,0,0,0,0,0,0,0,0,0,0,0,0,0,0,0,0,0,0,0,0,0,0,0,0,0,0],"sum_hessian":[6.3E1,6.2E1,1E0,5.8E1,4E0,1.5E1,4.3E1,3E0,1E0,1.2E1,3E0,7E0,3.6E1,1E0,2E0,8E0,4E0,5E0,2E0,2.2E1,1.4E1,1E0,1E0,1E0,7E0,3E0,1E0,4E0,1E0,7E0,1.5E1,1E1,4E0],"tree_param":{"num_deleted":"0","num_feature":"10","num_nodes":"33","size_leaf_vector":"1"}},{"base_weights":[1.895081E-1,7.55068E-2,1.1057385E0,7.849612E-3,8.5876024E-1,-5.4438286E-2,3.1850415E-1,7.7184916E-2,5.9775925E-1,2.8954205E-1,-9.909259E-2,5.41825E-1,-1.5193343E-1,-4.0019274E-2,1.9184494E-1,2.8530523E-1,-3.2956503E-2,-4.931362E-2,-3.622765E-1,2.604105E-1,2.4907228E-1,-1.1176429E-1,4.5787174E-2,7.035857E-2,1.597166E-2,-5.5205658E-2,1.5244138E-2,-3.053655E-2,1.3058661E-1,-1.6241977E-1,-5.4704275E-2,1.4904928E-2,9.0201475E-2,3.2866575E-2,-1.2262345E-2],"categories":[],"categories_nodes":[],"categories_segments":[],"categories_sizes":[],"default_left":[0,0,0,0,0,0,0,0,0,0,0,0,0,0,0,0,0,0,0,0,0,0,0,0,0,0,0,0,0,0,0,0,0,0,0],"id":13,"left_children":[1,3,-1,5,7,9,11,13,-1,15,17,19,21,-1,23,-1,25,27,29,31,-1,-1,33,-1,-1,-1,-1,-1,-1,-1,-1,-1,-1,-1,-1],"loss_changes":[2.5230896E1,3.331801E0,0E0,1.1589898E0,4.276842E0,7.9670167E-1,1.1329067E0,1.22173235E-1,0E0,1.3112912E0,5.716809E-1,3.519473E-1,1.915378E-1,0E0,5.2625835E-3,0E0,7.262339E-2,1.0360557E0,1.2688255E-1,2.7482271E-2,0E0,0E0,2.1056753E-2,0E0,0E0,0E0,0E0,0E0,0E0,0E0,0E0,0E0,0E0,0E0,0E0],"parents":[2147483647,0,0,1,1,3,3,4,4,5,5,6,6,7,7,9,9,10,10,11,11,12,12,14,14,16,16,17,17,18,18,19,19,22,22],"right_children":[2,4,-1,6,8,10,12,14,-1,16,18,20,22,-1,24,-1,26,28,30,32,-1,-1,34,-1,-1,-1,-1,-1,-1,-1,-1,-1,-1,-1,-1],"split_conditions":[7.5E-1,9.4E-2,1.1057385E0,4.685E-1,-2.548E-1,2E-4,2.8276E0,8.631E-1,5.9775925E-1,-1.23E-1,4.923E-1,-2.585E-1,3.014E-1,-4.0019274E-2,1.2958E0,2.8530523E-1,9.207E-1,4.898E-1,1.6117E0,2.517E-1,2.4907228E-1,-1.1176429E-1,1.4591E0,7.035857E-2,1.597166E-2,-5.5205658E-2,1.5244138E-2,-3.053655E-2,1.3058661E-1,-1.6241977E-1,-5.4704275E-2,1.4904928E-2,9.0201475E-2,3.2866575E-2,-1.2262345E-2],"split_indices":[2,6,0,2,5,4,4,0,0,7,1,5,1,0,0,0,3,1,3,1,0,0,0,0,0,0,0,0,0,0,0,0,0,0,0],"split_type":[0,0,0,0,0,0,0,0,0,0,0,0,0,0,0,0,0,0,0,0,0,0,0,0,0,0,0,0,0,0,0,0,0,0,0],"sum_hessian":[6.3E1,6.2E1,1E0,5.8E1,4E0,4.9E1,9E0,3E0,1E0,5E0,4.4E1,6E0,3E0,1E0,2E0,1E0,4E0,3.8E1,6E0,4E0,2E0,1E0,2E0,1E0,1E0,1E0,3E0,3.5E1,3E0,2E0,4E0,1E0,3E0,1E0,1E0],"tree_param":{"num_deleted":"0","num_feature":"10","num_nodes":"35","size_leaf_vector":"1"}},{"base_weights":[1.6611034E-1,6.928901E-2,9.398781E-1,1.21267205E-2,7.2994614E-1,-1.7673033E-1,8.0526404E-2,6.560707E-2,5.080954E-1,-9.254804E-2,-1.21842064E-1,3.9945585E-1,9.392301E-3,-3.401642E-2,1.6306813E-1,-1.458472E-1,8.2056284E-2,2.3151478E-2,3.056738E-1,-6.9167264E-2,3.0281663E-1,5.9804823E-2,1.3575841E-2,-8.8171616E-2,-1.9151498E-2,2.7104445E-2,-4.6924785E-2,-3.9620847E-2,1.1181436E-1,6.0204674E-2,1.5266362E-1],"categories":[],"categories_nodes":[],"categories_segments":[],"categories_sizes":[],"default_left":[0,0,0,0,0,0,0,0,0,0,0,0,0,0,0,0,0,0,0,0,0,0,0,0,0,0,0,0,0,0,0],"id":14,"left_children":[1,3,-1,5,7,9,11,13,-1,15,-1,17,19,-1,21,23,-1,25,-1,27,29,-1,-1,-1,-1,-1,-1,-1,-1,-1,-1],"loss_changes":[1.8166996E1,2.3703222E0,0E0,7.7637947E-1,3.0900192E0,2.7140853E-1,9.944656E-1,8.82702E-2,0E0,2.9353747E-1,0E0,1.8412452E0,8.738426E-1,0E0,3.8023517E-3,1.269426E-1,0E0,8.652989E-2,0E0,8.8308454E-1,6.624526E-2,0E0,0E0,0E0,0E0,0E0,0E0,0E0,0E0,0E0,0E0],"parents":[2147483647,0,0,1,1,3,3,4,4,5,5,6,6,7,7,9,9,11,11,12,12,14,14,15,15,17,17,19,19,20,20],"right_children":[2,4,-1,6,8,10,12,14,-1,16,-1,18,20,-1,22,24,-1,26,-1,28,30,-1,-1,-1,-1,-1,-1,-1,-1,-1,-1],"split_conditions":[7.5E-1,9.4E-2,9.398781E-1,2.54E-1,-2.548E-1,9.911E-1,1.1216E0,8.631E-1,5.080954E-1,2.35E-1,-1.21842064E-1,2.782E-1,3.544135E-2,-3.401642E-2,1.2958E0,2.039E-1,8.2056284E-2,1E0,3.056738E-1,5.161E-1,4.692E-1,5.9804823E-2,1.3575841E-2,-8.8171616E-2,-1.9151498E-2,2.7104445E-2,-4.6924785E-2,-3.9620847E-2,1.1181436E-1,6.0204674E-2,1.5266362E-1],"split_indices":[2,6,0,2,5,0,0,0,0,2,0,8,9,0,0,2,0,0,0,2,1,0,0,0,0,0,0,0,0,0,0],"split_type":[0,0,0,0,0,0,0,0,0,0,0,0,0,0,0,0,0,0,0,0,0,0,0,0,0,0,0,0,0,0,0],"sum_hessian":[6.3E1,6.2E1,1E0,5.8E1,4E0,1.5E1,4.3E1,3E0,1E0,1.2E1,3E0,7E0,3.6E1,1E0,2E0,1.1E1,1E0,5E0,2E0,2.9E1,7E0,1E0,1E0,3E0,8E0,4E0,1E0,2.6E1,3E0,6E0,1E0],"tree_param":{"num_deleted":"0","num_feature":"10","num_nodes":"31","size_leaf_vector":"1"}},{"base_weights":[1.4613868E-1,6.391908E-2,7.988961E-1,1.5671713E-2,6.204542E-1,-1.6685751E-1,3.5120938E-2,5.5765867E-2,4.3188116E-1,-8.904012E-2,1.4613348E-1,-2.8913928E-2,1.3860767E-1,-1.1646284E-1,1.0461187E-1,3.428589E-1,-1.1723729E-1,5.0834086E-2,1.1539364E-2,-9.973233E-2,-2.8083613E-2,-4.1029933E-3,4.458008E-2,1.1784962E-1,-7.600265E-2,-5.8512785E-2,3.7810996E-2],"categories":[],"categories_nodes":[],"categories_segments":[],"categories_sizes":[],"default_left":[0,0,0,0,0,0,0,0,0,0,0,0,0,0,0,0,0,0,0,0,0,0,0,0,0,0,0],"id":15,"left_children":[1,3,-1,5,7,-1,9,11,-1,13,15,-1,17,19,21,23,25,-1,-1,-1,-1,-1,-1,-1,-1,-1,-1],"loss_changes":[1.3073576E1,1.6819118E0,0E0,6.7574966E-1,2.2325406E0,0E0,8.12451E-1,6.377504E-2,0E0,1.6087638E-1,1.6463593E0,0E0,2.747327E-3,9.226143E-2,2.284564E-2,6.358135E-1,2.8957456E-1,0E0,0E0,0E0,0E0,0E0,0E0,0E0,0E0,0E0,0E0],"parents":[2147483647,0,0,1,1,3,3,4,4,6,6,7,7,9,9,10,10,12,12,13,13,14,14,15,15,16,16],"right_children":[2,4,-1,6,8,-1,10,12,-1,14,16,-1,18,20,22,24,26,-1,-1,-1,-1,-1,-1,-1,-1,-1,-1],"split_conditions":[7.5E-1,9.4E-2,7.988961E-1,8.467E-1,-2.548E-1,-1.6685751E-1,-2.657E-1,8.631E-1,4.3188116E-1,5.161E-1,-2.376E-1,-2.8913928E-2,1.2958E0,1.96E-1,2.517E-1,4.907E-1,1.4092E0,5.0834086E-2,1.1539364E-2,-9.973233E-2,-2.8083613E-2,-4.1029933E-3,4.458008E-2,1.1784962E-1,-7.600265E-2,-5.8512785E-2,3.7810996E-2],"split_indices":[2,6,0,3,5,0,5,0,0,2,5,0,0,2,1,1,4,0,0,0,0,0,0,0,0,0,0],"split_type":[0,0,0,0,0,0,0,0,0,0,0,0,0,0,0,0,0,0,0,0,0,0,0,0,0,0,0],"sum_hessian":[6.3E1,6.2E1,1E0,5.8E1,4E0,1E0,5.7E1,3E0,1E0,2.7E1,3E1,1E0,2E0,2.4E1,3E0,1.7E1,1.3E1,1E0,1E0,1E0,2.3E1,1E0,2E0,1.6E1,1E0,1E1,3E0],"tree_param":{"num_deleted":"0","num_feature":"10","num_nodes":"27","size_leaf_vector":"1"}},{"base_weights":[1.1840933E-1,4.843048E-2,6.7906153E-1,7.0201824E-3,5.273859E-1,-2.263782E-1,4.2792622E-2,4.7400713E-2,3.6709902E-1,-3.836321E-1,2.6783705E-2,-4.3458894E-2,1.7218576E-1,-2.4576904E-2,1.1781629E-1,-1.4211825E-1,-3.4875872E-3,-2.0211983E-2,2.4188137E-2,5.921593E-3,-1.9234055E-1,4.4033352E-1,3.55711E-2,4.3208886E-2,9.808445E-3,-1.0855568E-2,1.524728E-1,-8.140552E-2,-1.3647438E-2,1.8899304E-1,4.2182066E-2,-4.4431165E-2,4.2665694E-2],"categories":[],"categories_nodes":[],"categories_segments":[],"categories_sizes":[],"default_left":[0,0,0,0,0,0,0,0,0,0,0,0,0,0,0,0,0,0,0,0,0,0,0,0,0,0,0,0,0,0,0,0,0],"id":16,"left_children":[1,3,-1,5,7,9,11,13,-1,15,17,19,21,-1,23,-1,-1,-1,-1,25,27,29,31,-1,-1,-1,-1,-1,-1,-1,-1,-1,-1],"loss_changes":[9.497649E0,1.24582E0,0E0,5.0229186E-1,1.613012E0,3.2876062E-1,5.878215E-1,4.6077482E-2,0E0,1.6207331E-1,2.5711048E-2,2.3639813E-1,7.5362796E-1,0E0,1.9849278E-3,0E0,0E0,0E0,0E0,5.471694E-1,8.0477536E-2,3.093089E-1,3.1489134E-1,0E0,0E0,0E0,0E0,0E0,0E0,0E0,0E0,0E0,0E0],"parents":[2147483647,0,0,1,1,3,3,4,4,5,5,6,6,7,7,9,9,10,10,11,11,12,12,14,14,19,19,20,20,21,21,22,22],"right_children":[2,4,-1,6,8,10,12,14,-1,16,18,20,22,-1,24,-1,-1,-1,-1,26,28,30,32,-1,-1,-1,-1,-1,-1,-1,-1,-1,-1],"split_conditions":[7.5E-1,9.4E-2,6.7906153E-1,9.207E-1,-2.548E-1,3.113E-1,3.348E-1,8.631E-1,3.6709902E-1,5.161E-1,3.146E-1,-2.287E-1,1.7325E0,-2.4576904E-2,1.2958E0,-1.4211825E-1,-3.4875872E-3,-2.0211983E-2,2.4188137E-2,-8.05E-2,4.675E-1,2.57E-2,1.325E0,4.3208886E-2,9.808445E-3,-1.0855568E-2,1.524728E-1,-8.140552E-2,-1.3647438E-2,1.8899304E-1,4.2182066E-2,-4.4431165E-2,4.2665694E-2],"split_indices":[2,6,0,3,5,1,2,0,0,2,1,5,4,0,0,0,0,0,0,7,1,6,0,0,0,0,0,0,0,0,0,0,0],"split_type":[0,0,0,0,0,0,0,0,0,0,0,0,0,0,0,0,0,0,0,0,0,0,0,0,0,0,0,0,0,0,0,0,0],"sum_hessian":[6.3E1,6.2E1,1E0,5.8E1,4E0,7E0,5.1E1,3E0,1E0,4E0,3E0,3.1E1,2E1,1E0,2E0,3E0,1E0,1E0,2E0,2.4E1,7E0,6E0,1.4E1,1E0,1E0,2.3E1,1E0,4E0,3E0,3E0,3E0,5E0,9E0],"tree_param":{"num_deleted":"0","num_feature":"10","num_nodes":"33","size_leaf_vector":"1"}},{"base_weights":[1.0177635E-1,4.2312242E-2,5.7720226E-1,7.1912054E-3,4.4827804E-1,-1.20511085E-1,2.116704E-2,4.0290833E-2,3.1203404E-1,-6.1536465E-2,9.518417E-2,-2.0890333E-2,1.00144066E-1,-1.0670411E-2,-1.5202832E-1,4.2483282E-1,1.5450478E-2,3.6727525E-2,8.337308E-3,1.4002375E-2,-3.4693174E-2,-5.8921073E-2,5.094528E-3,1.4005126E-1,3.2221414E-2,2.5428273E-2,-2.6030784E-2],"categories":[],"categories_nodes":[],"categories_segments":[],"categories_sizes":[],"default_left":[0,0,0,0,0,0,0,0,0,0,0,0,0,0,0,0,0,0,0,0,0,0,0,0,0,0,0],"id":17,"left_children":[1,3,-1,5,7,-1,9,11,-1,13,15,-1,17,19,21,23,25,-1,-1,-1,-1,-1,-1,-1,-1,-1,-1],"loss_changes":[6.853461E0,8.950265E-1,0E0,3.4566697E-1,1.1653993E0,0E0,3.6090294E-1,3.329101E-2,0E0,1.2726077E-1,8.0824333E-1,0E0,1.4339797E-3,1.1977201E-1,7.83339E-2,2.9860258E-2,1.9156191E-1,0E0,0E0,0E0,0E0,0E0,0E0,0E0,0E0,0E0,0E0],"parents":[2147483647,0,0,1,1,3,3,4,4,6,6,7,7,9,9,10,10,12,12,13,13,14,14,15,15,16,16],"right_children":[2,4,-1,6,8,-1,10,12,-1,14,16,-1,18,20,22,24,26,-1,-1,-1,-1,-1,-1,-1,-1,-1,-1],"split_conditions":[7.5E-1,9.4E-2,5.7720226E-1,8.467E-1,-2.548E-1,-1.20511085E-1,-2.657E-1,8.631E-1,3.1203404E-1,4.427E-1,-2.558E-1,-2.0890333E-2,1.2958E0,2.0771E0,1.371E0,1.5045E0,-2.287E-1,3.6727525E-2,8.337308E-3,1.4002375E-2,-3.4693174E-2,-5.8921073E-2,5.094528E-3,1.4005126E-1,3.2221414E-2,2.5428273E-2,-2.6030784E-2],"split_indices":[2,6,0,3,5,0,5,0,0,1,5,0,0,4,0,3,5,0,0,0,0,0,0,0,0,0,0],"split_type":[0,0,0,0,0,0,0,0,0,0,0,0,0,0,0,0,0,0,0,0,0,0,0,0,0,0,0],"sum_hessian":[6.3E1,6.2E1,1E0,5.8E1,4E0,1E0,5.7E1,3E0,1E0,2.7E1,3E1,1E0,2E0,1.8E1,9E0,5E0,2.5E1,1E0,1E0,1.2E1,6E0,7E0,2E0,4E0,1E0,1.5E1,1E1],"tree_param":{"num_deleted":"0","num_feature":"10","num_nodes":"27","size_leaf_vector":"1"}},{"base_weights":[8.515041E-2,3.458434E-2,4.9062195E-1,4.6378393E-3,3.810362E-1,-1.0243443E-1,1.6491873E-2,3.424716E-2,2.6522887E-1,3.8435265E-2,-1.4887217E-1,-1.7756797E-2,8.512243E-2,-3.150626E-2,9.4992556E-2,-9.070516E-2,-2.7010728E-2,3.1218339E-2,7.0867543E-3,-1.7407554E-3,-4.7572304E-2,9.782835E-2,9.977716E-3,-1.5954638E-2,1.165123E-2],"categories":[],"categories_nodes":[],"categories_segments":[],"categories_sizes":[],"default_left":[0,0,0,0,0,0,0,0,0,0,0,0,0,0,0,0,0,0,0,0,0,0,0,0,0],"id":18,"left_children":[1,3,-1,5,7,-1,9,11,-1,13,15,-1,17,19,21,-1,23,-1,-1,-1,-1,-1,-1,-1,-1],"loss_changes":[4.9604235E0,6.518591E-1,0E0,2.4767946E-1,8.4200054E-1,0E0,2.1618356E-1,2.4052763E-2,0E0,2.0868942E-1,1.2275492E-1,0E0,1.0359995E-3,7.746687E-2,4.0288958E-1,0E0,1.0682149E-2,0E0,0E0,0E0,0E0,0E0,0E0,0E0,0E0],"parents":[2147483647,0,0,1,1,3,3,4,4,6,6,7,7,9,9,10,10,12,12,13,13,14,14,16,16],"right_children":[2,4,-1,6,8,-1,10,12,-1,14,16,-1,18,20,22,-1,24,-1,-1,-1,-1,-1,-1,-1,-1],"split_conditions":[7.5E-1,9.4E-2,4.9062195E-1,8.467E-1,-2.548E-1,-1.0243443E-1,4.923E-1,8.631E-1,2.6522887E-1,-2.657E-1,1.6117E0,-1.7756797E-2,1.2958E0,-2.674E-1,-2.558E-1,-9.070516E-2,4.961E-1,3.1218339E-2,7.0867543E-3,-1.7407554E-3,-4.7572304E-2,9.782835E-2,9.977716E-3,-1.5954638E-2,1.165123E-2],"split_indices":[2,6,0,3,5,0,1,0,0,5,3,0,0,5,5,0,1,0,0,0,0,0,0,0,0],"split_type":[0,0,0,0,0,0,0,0,0,0,0,0,0,0,0,0,0,0,0,0,0,0,0,0,0],"sum_hessian":[6.3E1,6.2E1,1E0,5.8E1,4E0,1E0,5.7E1,3E0,1E0,5.1E1,6E0,1E0,2E0,2.3E1,2.8E1,2E0,4E0,1E0,1E0,2E1,3E0,5E0,2.3E1,3E0,1E0],"tree_param":{"num_deleted":"0","num_feature":"10","num_nodes":"25","size_leaf_vector":"1"}},{"base_weights":[6.9565564E-2,2.6539788E-2,4.1702846E-1,8.9157233E-4,3.2388076E-1,-1.5011674E-1,2.4106475E-2,2.9109955E-2,2.2544461E-1,-2.5532085E-1,1.891756E-2,2.0728092E-1,4.523585E-3,-1.50933275E-2,7.2354E-2,-9.334363E-2,-4.8033716E-3,-1.4772178E-2,5.8050472E-2,9.865876E-2,1.6605696E-2,4.1808974E-2,-8.9012995E-2,2.6535703E-2,6.023598E-3,2.3560096E-2,2.5626183E-3,8.305693E-3,-8.331299E-4,1.6279132E-3,9.6725255E-2,-6.281252E-2,3.356139E-4],"categories":[],"categories_nodes":[],"categories_segments":[],"categories_sizes":[],"default_left":[0,0,0,0,0,0,0,0,0,0,0,0,0,0,0,0,0,0,0,0,0,0,0,0,0,0,0,0,0,0,0,0,0],"id":19,"left_children":[1,3,-1,5,7,9,11,13,-1,15,17,19,21,-1,23,-1,-1,-1,25,-1,27,29,31,-1,-1,-1,-1,-1,-1,-1,-1,-1,-1],"loss_changes":[3.599382E0,4.8016596E-1,0E0,2.1045174E-1,6.083463E-1,1.4709486E-1,1.8559076E-1,1.7378157E-2,0E0,6.1814964E-2,1.3527347E-2,1.1045201E-1,1.7112383E-1,0E0,7.4863434E-4,0E0,0E0,0E0,2.3714295E-3,0E0,7.211668E-4,3.5557476E-1,1.521124E-1,0E0,0E0,0E0,0E0,0E0,0E0,0E0,0E0,0E0,0E0],"parents":[2147483647,0,0,1,1,3,3,4,4,5,5,6,6,7,7,9,9,10,10,11,11,12,12,14,14,18,18,20,20,21,21,22,22],"right_children":[2,4,-1,6,8,10,12,14,-1,16,18,20,22,-1,24,-1,-1,-1,26,-1,28,30,32,-1,-1,-1,-1,-1,-1,-1,-1,-1,-1],"split_conditions":[7.5E-1,9.4E-2,4.1702846E-1,9.207E-1,-2.548E-1,3.113E-1,3.165E-1,8.631E-1,2.2544461E-1,5.161E-1,3.146E-1,4E-2,3.316E-1,-1.50933275E-2,1.2958E0,-9.334363E-2,-4.8033716E-3,-1.4772178E-2,1.2988E0,9.865876E-2,9.612E-1,3.128E-1,1.6429E0,2.6535703E-2,6.023598E-3,2.3560096E-2,2.5626183E-3,8.305693E-3,-8.331299E-4,1.6279132E-3,9.6725255E-2,-6.281252E-2,3.356139E-4],"split_indices":[2,6,0,3,5,1,1,0,0,2,1,6,8,0,0,0,0,0,0,0,0,8,3,0,0,0,0,0,0,0,0,0,0],"split_type":[0,0,0,0,0,0,0,0,0,0,0,0,0,0,0,0,0,0,0,0,0,0,0,0,0,0,0,0,0,0,0,0,0],"sum_hessian":[6.3E1,6.2E1,1E0,5.8E1,4E0,7E0,5.1E1,3E0,1E0,4E0,3E0,4E0,4.7E1,1E0,2E0,3E0,1E0,1E0,2E0,2E0,2E0,3.4E1,1.3E1,1E0,1E0,1E0,1E0,1E0,1E0,3.1E1,3E0,5E0,8E0],"tree_param":{"num_deleted":"0","num_feature":"10","num_nodes":"33","size_leaf_vector":"1"}}]},"name":"gbtree"},"learner_model_param":{"base_score":"1.42047615E1","boost_from_average":"1","num_class":"0","num_feature":"10","num_target":"1"},"objective":{"name":"reg:squarederror","reg_loss_param":{"scale_pos_weight":"1"}}},"version":[2,1,1]}