{"learner":{"attributes":{"best_iteration":"0","best_score":"0.35","scikit_learn":"{\"_estimator_type\": \"classifier\"}"},"feature_names":["feature_1","feature_2","feature_3"],"feature_types":["int","int","int"],"gradient_booster":{"model":{"gbtree_model_param":{"num_parallel_tree":"1","num_trees":"6"},"iteration_indptr":[0,1,2,3,4,5,6],"tree_info":[0,0,0,0,0,0],"trees":[{"base_weights":[-2.6876555E-4,2.3187408E-1,-2.1221168E-1,1.2306186E-1,2.9280013E-1,-9.513772E-2,-9.376451E-2,-4.148753E-2,1.4744525E-1,1.7021748E-1,-7.090894E-3,-5.3847123E-2,-9.50823E-4],"categories":[],"categories_nodes":[],"categories_segments":[],"categories_sizes":[],"default_left":[0,0,0,0,0,0,0,0,0,0,0,0,0],"id":0,"left_children":[1,3,5,7,9,11,-1,-1,-1,-1,-1,-1,-1],"loss_changes":[1.0769135E0,3.3224225E-2,1.0466194E-1,5.9512675E-1,5.3232086E-1,5.1546108E-2,0E0,0E0,0E0,0E0,0E0,0E0,0E0],"parents":[2147483647,0,0,1,1,2,2,3,3,4,4,5,5],"right_children":[2,4,6,8,10,12,-1,-1,-1,-1,-1,-1,-1],"split_conditions":[1E0,1E0,1E0,1E0,1E0,1E0,-9.376451E-2,-4.148753E-2,1.4744525E-1,1.7021748E-1,-7.090894E-3,-5.3847123E-2,-9.50823E-4],"split_indices":[1,0,2,2,2,0,0,0,0,0,0,0,0],"split_type":[0,0,0,0,0,0,0,0,0,0,0,0,0],"sum_hessian":[1.988792E1,9.446762E0,1.0441157E1,4.474782E0,4.97198E0,5.717777E0,4.723381E0,2.983188E0,1.491594E0,2.237391E0,2.7345889E0,2.48599E0,3.231787E0],"tree_param":{"num_deleted":"0","num_feature":"3","num_nodes":"13","size_leaf_vector":"1"}},{"base_weights":[5.3679086E-3,1.8766814E-1,-1.625078E-1,1.0535004E-1,2.3159875E-1,-7.4932374E-2,-2.3728642E-1,-3.2267008E-2,1.2045999E-1,1.3427214E-1,-5.535807E-3,-4.249657E-2,-7.330049E-4,-3.4094363E-2,-8.898894E-2],"categories":[],"categories_nodes":[],"categories_segments":[],"categories_sizes":[],"default_left":[0,0,0,0,0,0,0,0,0,0,0,0,0,0,0],"id":1,"left_children":[1,3,5,7,9,11,13,-1,-1,-1,-1,-1,-1,-1,-1],"loss_changes":[6.6832423E-1,1.3411224E-2,5.678311E-2,3.8829055E-1,3.3136326E-1,3.208748E-2,7.964522E-3,0E0,0E0,0E0,0E0,0E0,0E0,0E0,0E0],"parents":[2147483647,0,0,1,1,2,2,3,3,4,4,5,5,6,6],"right_children":[2,4,6,8,10,12,14,-1,-1,-1,-1,-1,-1,-1,-1],"split_conditions":[1E0,1E0,1E0,1E0,1E0,1E0,1E0,-3.2267008E-2,1.2045999E-1,1.3427214E-1,-5.535807E-3,-4.249657E-2,-7.330049E-4,-3.4094363E-2,-8.898894E-2],"split_indices":[1,0,2,2,2,0,0,0,0,0,0,0,0,0,0],"split_type":[0,0,0,0,0,0,0,0,0,0,0,0,0,0,0],"sum_hessian":[1.9841433E1,9.455538E0,1.0385894E1,4.4726644E0,4.982874E0,5.705764E0,4.6801305E0,2.9726667E0,1.4999976E0,2.2497702E0,2.7331038E0,2.4742076E0,3.2315562E0,2.4632266E0,2.216904E0],"tree_param":{"num_deleted":"0","num_feature":"3","num_nodes":"15","size_leaf_vector":"1"}},{"base_weights":[6.1663194E-3,1.5261258E-1,-1.2908046E-1,9.011786E-2,1.8418758E-1,-5.9040476E-2,-1.8930784E-1,-2.5097894E-2,9.900761E-2,1.0687864E-1,-4.321643E-3,-3.355162E-2,-5.6510896E-4,-2.6919646E-2,-7.132394E-2],"categories":[],"categories_nodes":[],"categories_segments":[],"categories_sizes":[],"default_left":[0,0,0,0,0,0,0,0,0,0,0,0,0,0,0],"id":2,"left_children":[1,3,5,7,9,11,13,-1,-1,-1,-1,-1,-1,-1,-1],"loss_changes":[4.3090212E-1,3.9748996E-3,3.663808E-2,2.5513834E-1,2.0909338E-1,1.9989824E-2,5.8757663E-3,0E0,0E0,0E0,0E0,0E0,0E0,0E0,0E0],"parents":[2147483647,0,0,1,1,2,2,3,3,4,4,5,5,6,6],"right_children":[2,4,6,8,10,12,14,-1,-1,-1,-1,-1,-1,-1,-1],"split_conditions":[1E0,1E0,1E0,1E0,1E0,1E0,1E0,-2.5097894E-2,9.900761E-2,1.0687864E-1,-4.321643E-3,-3.355162E-2,-5.6510896E-4,-2.6919646E-2,-7.132394E-2],"split_indices":[1,0,2,2,2,0,0,0,0,0,0,0,0,0,0],"split_type":[0,0,0,0,0,0,0,0,0,0,0,0,0,0,0],"sum_hessian":[1.9761124E1,9.426085E0,1.0335039E1,4.4575605E0,4.968525E0,5.6938295E0,4.6412096E0,2.9627614E0,1.4947989E0,2.236628E0,2.731897E0,2.462452E0,3.2313774E0,2.4523606E0,2.188849E0],"tree_param":{"num_deleted":"0","num_feature":"3","num_nodes":"15","size_leaf_vector":"1"}},{"base_weights":[6.48832E-3,3.7340682E-2,-1.0258719E-1,-4.652743E-2,-1.5113872E-1,-2.6491033E-2,-4.3563734E-4,-2.1252615E-2,-5.7235803E-2],"categories":[],"categories_nodes":[],"categories_segments":[],"categories_sizes":[],"default_left":[0,0,0,0,0,0,0,0,0],"id":3,"left_children":[1,-1,3,5,7,-1,-1,-1,-1],"loss_changes":[2.7871284E-1,0E0,2.3686893E-2,1.2456134E-2,4.323095E-3,0E0,0E0,0E0,0E0],"parents":[2147483647,0,0,2,2,3,3,4,4],"right_children":[2,-1,4,6,8,-1,-1,-1,-1],"split_conditions":[1E0,3.7340682E-2,1E0,1E0,1E0,-2.6491033E-2,-4.3563734E-4,-2.1252615E-2,-5.7235803E-2],"split_indices":[1,0,2,0,0,0,0,0,0],"split_type":[0,0,0,0,0,0,0,0,0],"sum_hessian":[1.9665794E1,9.3794565E0,1.0286337E1,5.682908E0,4.6034293E0,2.451669E0,3.2312388E0,2.4428308E0,2.1605985E0],"tree_param":{"num_deleted":"0","num_feature":"3","num_nodes":"9","size_leaf_vector":"1"}},{"base_weights":[1.201458E-3,9.06998E-2,-8.155146E-2,4.645498E-2,1.1597532E-1,-3.6669225E-2,-1.2068931E-1,-2.78181E-2,7.520073E-2,7.8067094E-2,-1.1561668E-2,-2.091405E-2,-3.3586263E-4,-1.6775686E-2,-4.5948226E-2],"categories":[],"categories_nodes":[],"categories_segments":[],"categories_sizes":[],"default_left":[0,0,0,0,0,0,0,0,0,0,0,0,0,0,0],"id":4,"left_children":[1,3,5,7,9,11,13,-1,-1,-1,-1,-1,-1,-1,-1],"loss_changes":[1.6014503E-1,6.222382E-3,1.5322946E-2,1.7794159E-1,1.424003E-1,7.7612447E-3,3.1483471E-3,0E0,0E0,0E0,0E0,0E0,0E0,0E0,0E0],"parents":[2147483647,0,0,1,1,2,2,3,3,4,4,5,5,6,6],"right_children":[2,4,6,8,10,12,14,-1,-1,-1,-1,-1,-1,-1,-1],"split_conditions":[1E0,1E0,1E0,1E0,1E0,1E0,1E0,-2.78181E-2,7.520073E-2,7.8067094E-2,-1.1561668E-2,-2.091405E-2,-3.3586263E-4,-1.6775686E-2,-4.5948226E-2],"split_indices":[1,0,2,2,2,0,0,0,0,0,0,0,0,0,0],"split_type":[0,0,0,0,0,0,0,0,0,0,0,0,0,0,0],"sum_hessian":[1.962425E1,9.3817425E0,1.0242507E1,4.442713E0,4.93903E0,5.673367E0,4.56914E0,2.9666958E0,1.476017E0,2.2005467E0,2.7384834E0,2.4422355E0,3.2311318E0,2.4347243E0,2.1344156E0],"tree_param":{"num_deleted":"0","num_feature":"3","num_nodes":"15","size_leaf_vector":"1"}},{"base_weights":[2.3432814E-3,7.500976E-2,-6.483371E-2,4.1499477E-2,9.304041E-2,-2.890033E-2,-9.6367426E-2,-2.1636538E-2,6.2223878E-2,6.2623814E-2,-9.02708E-3,-1.6508223E-2,-2.589518E-4,-1.3239208E-2,-3.6884364E-2],"categories":[],"categories_nodes":[],"categories_segments":[],"categories_sizes":[],"default_left":[0,0,0,0,0,0,0,0,0,0,0,0,0,0,0],"id":5,"left_children":[1,3,5,7,9,11,13,-1,-1,-1,-1,-1,-1,-1,-1],"loss_changes":[1.0508216E-1,2.377849E-3,9.9109E-3,1.1708534E-1,9.045687E-2,4.8350086E-3,2.2652857E-3,0E0,0E0,0E0,0E0,0E0,0E0,0E0,0E0],"parents":[2147483647,0,0,1,1,2,2,3,3,4,4,5,5,6,6],"right_children":[2,4,6,8,10,12,14,-1,-1,-1,-1,-1,-1,-1,-1],"split_conditions":[1E0,1E0,1E0,1E0,1E0,1E0,1E0,-2.1636538E-2,6.2223878E-2,6.2623814E-2,-9.02708E-3,-1.6508223E-2,-2.589518E-4,-1.3239208E-2,-3.6884364E-2],"split_indices":[1,0,2,2,2,0,0,0,0,0,0,0,0,0,0],"split_type":[0,0,0,0,0,0,0,0,0,0,0,0,0,0,0],"sum_hessian":[1.9530304E1,9.325814E0,1.0204489E1,4.4174705E0,4.908344E0,5.665273E0,4.539216E0,2.957448E0,1.4600226E0,2.1719995E0,2.7363443E0,2.4342241E0,3.2310488E0,2.427967E0,2.111249E0],"tree_param":{"num_deleted":"0","num_feature":"3","num_nodes":"15","size_leaf_vector":"1"}}]},"name":"gbtree"},"learner_model_param":{"base_score":"4.6257016E-1","boost_from_average":"1","num_class":"0","num_feature":"3","num_target":"1"},"objective":{"name":"binary:logistic","reg_loss_param":{"scale_pos_weight":"1"}}},"version":[2,0,0]}