{"learner":{"attributes":{"best_iteration":"7","best_score":"0.05405405405405406","scikit_learn":"{\"_estimator_type\": \"classifier\"}"},"feature_names":["Molecule is an isotope","presence of an element 104 (Rf)","presence of an element from group IVa,Va,VIa Rows 4-6","presence of an actinide","presence of an element from group IIIB,IVB (Sc...)","presence of a Lanthanide","presence of an element from group VB,VIB,VIIB","presence of a heteroatom in a 4M ring","presence of an element from group VIII (Fe...)","presence of an element from group IIa (Alkaline earth)","presence of a 4M Ring","presence of an element from Group IB,IIB (Cu..)","presence of a nitrone or aminoxyl group","presence of a disulfide bond","presence of an orthoester or carbonate ester","presence of a heteroatom in a 3M ring","presence of an alkyne group","presence of an element from group IIIA (B...)","presence of a 7M Ring","presence of an Si","presence of an alkene C bonded to two heteroatoms","presence of a 3M Ring","presence of a carbamate group","presence of an N-O single bond","presence of a methanetriamine or guanidine group","presence of an alkene C in a ring that is bonded to two other neighbors by a ring bond","presence of an I","presence of a methylene group bonded to two heteroatoms","presence of a P","presence of a heteroatom bonded to at least four neighbors, three of which are C","presence of a heteroatom bonded to a halogen","presence of a S-C-N bond","presence of an N-S bond","presence of a CH2 group involved in a double bond","presence of an element from group IA (Alkali Metal)","presence of an S-heterocycle","presence of a carbamide group","presence of a aminal or acetamidine group","presence of a sulfonate or sulfite group","presence of an S-O single bond","presence of a cyano group","presence of a F","presence of an atom with two heteroatom neighbors that are bonded to H","presence of an atom other than H, C, N, O, Si, P, S, Cl, Br, I","presence of an enamine group","presence of a Br","presence of an atom bonded to both S and N","presence of a heteroatom bonded to three O","presence of a charged atom/group","presence of a tertiary C involved in a double bond","presence of a sulfinyl, sulfonyl, sulfino or sulfo group","presence of an N-N bond","presence of two heteroatoms, both attached to at least one H and seperated by any 4 bonds","presence of two heteroatoms, both attached to at least one H and seperated by any 3 bonds","presence of a sulfonyl or sulfino or sulfur dioxide group","presence of a nitro group","presence of an O-Heterocycle","presence of an S bonded to two heteroatoms","presence of an atom bonded to S by a non-aromatic ring bond and bonded to another atom aromatically","presence of an S=O double bond","presence of an S bonded to at least three neighbors","presence of an atom at a ring/chain boundary where the path passes through the chain bond","presence of an N=O, nitroso group","presence of an atom bonded to another atom by an aromatic bond and bonded to an S by a non-aromatic bond","presence of an aromatic bond between an aromatic C and aromatic N","presence of a tertiary C","presence of a heteroatom bonded to S","presence of two heteroatoms bonded to at least one H neighbor and bonded to each other","presence of a heteroatom bonded to another heteroatom that has at least one H neighbor","presence of an N bonded to two heteroatoms","presence of an N-O single bond.1","presence of an O seperated from another O by any 3 bonds","presence of an S involved in a double bond","presence of an atom bonded to two methyl groups","presence of an N bonded to one atom with a ring bond and another atom with a non-ring bond","presence of a C involved in one alkene bond","presence of an atom bonded to two N neighbors","presence of a C=N double bond","presence of an N separated from another N by any three bonds","presence of an N separated from another N by any four bonds","presence of an atom bonded to three other atoms, one of which is an S","presence of a CH2 group bonded to another atom and a heteroatom that is bonded to at least one H","presence of a heteroatom in a 5M ring","presence of an amine (NH2) group","presence of a tertiary amine","presence of a heteroatom bonded to at least two CH2 carbons","presence of a halogen at a chain/ring boundary","presence of an S","presence of an O separated from another O by any 4 bonds","presence of a heteroatom separated from a CH2 group by any 3 bonds","presence of a heteroatom separated from a CH2 group by any 4 bonds","presence of a carboxamide group","presence of a heteroatom bonded to a methyl C","presence of a heteroatom bonded to an N","presence of an N seperated from an O by any 3 bonds","presence of a 5M ring","presence of an N seperated from an O by any 4 bonds","presence of a heteroatom in a 6M ring","presence of an alkene bond","presence of a aminomethyl group (-CH2N-)","presence of a 8M - 14M Ring ","presence of a heteroatom bonded to an O by a single or double bond","presence of a Cl atom","presence of a heteroatom separated from a CH2 group by any two bonds","presence of an atom with more than two ring bonds","presence of an atom with three heteroatom neighbors","presence of an atom bonded to 3 other atoms, one of which is a halogen","presence of a CH3 group separated from a CH2 group by any four bonds","presence of an oxymethylene group (-CH2O-)","presence of a C bonded to O and N","presence of an N separated from a CH2 group by any two bonds","presence of an atom with at least four neighbors","presence of an atom bonded to O by a non-aromatic bond and bonded to another atom aromatically","presence of an atom bonded to a CH3CH2- group","presence of a CH3 group separated from a CH2 group by any two bonds","presence of a CH3 group separated from a CH2 group by any three bonds","presence of an N separated from O by any two bonds","presence of multiple fragments containing ethylene groups","presence of an N involved in a double bond","presence of multiple heterocyclic atoms","presence of an N-heterocycle","presence of an atom with at least 2 bonded neighbors, one of which is nitrogen","presence of a C bonded to two O atoms","presence of two heteroatoms bonded to each other","presence of multiple aromatic rings","presence of an O with at least two chain bonds","presence of multiple atoms bonded aromatically to another atom and also bonded to an O by a non-ring bond","presence of two CH2 groups separated by any four bonds","presence of two CH2 groups separated by any three bonds","presence of multiple heteroatoms bonded to at least one heteroatom neighbor","presence of multiple heteroatoms bonded to at least one H atom","presence of a CH2 group separated from O by any two bonds","presence of an atom bonded to another atom by a ring bond and bonded to N by a chain bond","presence of a halogen","presence of an atom bonded to N by a non-aromatic ring bond and bonded to another atom aromatically","presence of multiple O atoms involved in double bonds","presence of a heterocycle","presence of more than one CH2 group that is bonded to two neighbors, one of which is a heteroatom","presence of a hydroxy oxygen (OH)","presence of more than three O atoms","presence of more than two methyl groups","presence of multiple N atoms","presence of an atom bonded to another atom by a ring bond and bonded to O by a chain bond","presence of an atom at an aromatic/non-aromatic boundary","presence of more than one 6M ring","presence of more than two O atoms","presence of two CH2 groups bonded by a single bond","presence of a heteroatom bonded to at least three neighbors","presence of multiple methyl groups","presence of an atom at a ring/chain boundary where the path passes through the ring bond","presence of an N bonded to at least one H","presence of an O bonded to a secondary C","presence of a CH2 group bonded to two neighbors, at least one of which is a heteroatom","presence of a C=O double bond","presence of a CH2 group bonded to two neighbors by non-ring bonds","presence of an atom bonded to an N and two other atoms","Is a C-O single bond","Is a C-N single bond","presence of more than one O atom","presence of a methyl group","presence of an N","presence of an Aromatic atom","presence of a 6M Ring","presence of an O","presence of an atom in a ring"],"feature_types":["int","int","int","int","int","int","int","int","int","int","int","int","int","int","int","int","int","int","int","int","int","int","int","int","int","int","int","int","int","int","int","int","int","int","int","int","int","int","int","int","int","int","int","int","int","int","int","int","int","int","int","int","int","int","int","int","int","int","int","int","int","int","int","int","int","int","int","int","int","int","int","int","int","int","int","int","int","int","int","int","int","int","int","int","int","int","int","int","int","int","int","int","int","int","int","int","int","int","int","int","int","int","int","int","int","int","int","int","int","int","int","int","int","int","int","int","int","int","int","int","int","int","int","int","int","int","int","int","int","int","int","int","int","int","int","int","int","int","int","int","int","int","int","int","int","int","int","int","int","int","int","int","int","int","int","int","int","int","int","int","int","int","int","int","int"],"gradient_booster":{"model":{"gbtree_model_param":{"num_parallel_tree":"1","num_trees":"13"},"iteration_indptr":[0,1,2,3,4,5,6,7,8,9,10,11,12,13],"tree_info":[0,0,0,0,0,0,0,0,0,0,0,0,0],"trees":[{"base_weights":[-6.0743695E-1,1.8976213E-1,-1.1374695E0,-2.2662705E-1,2.107552E0,-3.4739476E-1,-4.7839257E-1,-5.696094E-1,7.5367755E-1,4.4034126E-1,2.975315E0,-2.526975E-1,1.1255178E-1,-6.9003624E-1,2.882261E-1,1.0324703E-1,1.7259748E0,-2.089925E-1,1.085443E0,1.0611085E0,1.2621377E0,-8.214897E-1,2.798439E-1,-2.444288E-1,1.2621377E0,7.8136075E-1,-7.2591066E-1,1.7528458E-2,2.3638492E0,5.3038514E-1,-5.3495403E-2,6.365832E-1,-5.3495403E-2,-2.6270983E-1,1.1255178E-1,2.8901768E-1,-2.1639995E-1,4.5027462E-1,1.1255178E-1,-6.947692E-2,4.6826497E-1,-2.5981247E-1,-3.4272544E-2,1.8986617E-1,8.899603E-1],"categories":[],"categories_nodes":[],"categories_segments":[],"categories_sizes":[],"default_left":[0,0,0,0,0,0,0,0,0,0,0,0,0,0,0,0,0,0,0,0,0,0,0,0,0,0,0,0,0,0,0,0,0,0,0,0,0,0,0,0,0,0,0,0,0],"id":0,"left_children":[1,3,5,7,9,-1,11,13,15,17,19,-1,-1,21,23,25,27,-1,29,-1,31,33,35,-1,37,39,41,-1,43,-1,-1,-1,-1,-1,-1,-1,-1,-1,-1,-1,-1,-1,-1,-1,-1],"loss_changes":[6.576955E1,5.0636806E1,7.077942E-1,1.8084883E1,1.5041195E1,0E0,1.7204194E0,4.2764053E0,8.701321E0,4.4547777E0,2.5217514E0,0E0,0E0,4.6801853E0,7.00554E0,5.8954697E0,5.7805004E0,0E0,3.4273777E0,0E0,4.5240927E0,2.3391151E0,4.0566177E0,0E0,1.4582014E-1,4.85809E0,3.1092834E-1,0E0,2.2947578E0,0E0,0E0,0E0,0E0,0E0,0E0,0E0,0E0,0E0,0E0,0E0,0E0,0E0,0E0,0E0,0E0],"parents":[2147483647,0,0,1,1,2,2,3,3,4,4,6,6,7,7,8,8,9,9,10,10,13,13,14,14,15,15,16,16,18,18,20,20,21,21,22,22,24,24,25,25,26,26,28,28],"right_children":[2,4,6,8,10,-1,12,14,16,18,20,-1,-1,22,24,26,28,-1,30,-1,32,34,36,-1,38,40,42,-1,44,-1,-1,-1,-1,-1,-1,-1,-1,-1,-1,-1,-1,-1,-1,-1,-1],"split_conditions":[1E0,1E0,1E0,1E0,1E0,-3.4739476E-1,1E0,1E0,1E0,1E0,1E0,-2.526975E-1,1.1255178E-1,1E0,1E0,1E0,1E0,-2.089925E-1,1E0,1.0611085E0,1E0,1E0,1E0,-2.444288E-1,1E0,1E0,1E0,1.7528458E-2,1E0,5.3038514E-1,-5.3495403E-2,6.365832E-1,-5.3495403E-2,-2.6270983E-1,1.1255178E-1,2.8901768E-1,-2.1639995E-1,4.5027462E-1,1.1255178E-1,-6.947692E-2,4.6826497E-1,-2.5981247E-1,-3.4272544E-2,1.8986617E-1,8.899603E-1],"split_indices":[47,84,61,131,123,0,91,52,110,120,55,0,0,51,149,158,96,0,133,0,104,34,156,0,51,99,116,0,155,0,0,0,0,0,0,0,0,0,0,0,0,0,0,0,0],"split_type":[0,0,0,0,0,0,0,0,0,0,0,0,0,0,0,0,0,0,0,0,0,0,0,0,0,0,0,0,0,0,0,0,0,0,0,0,0,0,0,0,0,0,0,0,0],"sum_hessian":[1.541414E2,6.181305E1,9.232835E1,5.151087E1,1.0302175E1,8.880735E1,3.5209963E0,3.8470146E1,1.3040728E1,4.0426254E0,6.259549E0,2.4777381E0,1.0432582E0,3.390589E1,4.5642548E0,8.476473E0,4.5642548E0,1.43448E0,2.6081455E0,3.912218E0,2.347331E0,2.9993673E1,3.912218E0,2.2169237E0,2.347331E0,4.694662E0,3.781811E0,1.5648873E0,2.9993672E0,1.43448E0,1.1736655E0,1.1736655E0,1.1736655E0,2.8950415E1,1.0432582E0,2.347331E0,1.5648873E0,1.3040727E0,1.0432582E0,2.347331E0,2.347331E0,2.7385528E0,1.0432582E0,1.3040727E0,1.6952946E0],"tree_param":{"num_deleted":"0","num_feature":"165","num_nodes":"45","size_leaf_vector":"1"}},{"base_weights":[-5.18928E-1,1.2805589E-1,-1.0737672E0,-6.480957E-1,5.850253E-1,-3.2949093E-1,-4.0856174E-1,-8.7866074E-1,3.0199727E-1,8.814952E-2,1.158629E0,-2.3284273E-1,9.2146054E-2,-9.174629E-1,-3.3634607E-2,-3.5598293E-1,3.4019905E-1,-3.384273E-1,6.852058E-1,3.037576E-1,1.631366E0,-5.446198E-1,-3.1530273E-1,6.55986E-2,-2.1474952E-1,-5.8522534E-1,6.777213E-1,7.249755E-2,1.5950183E0,-1.3092302E-1,4.356942E-1,1.7743936E0,1.1829537E-1,-2.307142E-1,8.855276E-2,5.8890674E-2,-2.2939625E-1,3.7753406E-1,-6.6778414E-2,-1.6875957E-1,3.2577625E-1,8.663584E-2,6.068437E-1,1.4759181E-1,-1.9702972E-1,3.4966427E-1,7.3275685E-1],"categories":[],"categories_nodes":[],"categories_segments":[],"categories_sizes":[],"default_left":[0,0,0,0,0,0,0,0,0,0,0,0,0,0,0,0,0,0,0,0,0,0,0,0,0,0,0,0,0,0,0,0,0,0,0,0,0,0,0,0,0,0,0,0,0,0,0],"id":1,"left_children":[1,3,5,7,9,-1,11,13,15,17,19,-1,-1,21,-1,23,-1,25,27,29,31,33,-1,-1,-1,35,37,39,41,43,-1,45,-1,-1,-1,-1,-1,-1,-1,-1,-1,-1,-1,-1,-1,-1,-1],"loss_changes":[4.875938E1,2.2874498E1,7.4311066E-1,5.5180063E0,1.1425496E1,0E0,1.3407006E0,4.7867203E-1,3.3745427E0,6.0273933E0,7.0581837E0,0E0,0E0,3.4726906E-1,0E0,9.405318E-1,0E0,3.8929882E0,5.3547845E0,4.1264925E0,1.3893375E0,1.5362396E0,0E0,0E0,0E0,1.7983465E0,1.9468253E0,5.0589457E0,1.5960207E0,2.4970489E0,0E0,1.3420372E0,0E0,0E0,0E0,0E0,0E0,0E0,0E0,0E0,0E0,0E0,0E0,0E0,0E0,0E0,0E0],"parents":[2147483647,0,0,1,1,2,2,3,3,4,4,6,6,7,7,8,8,9,9,10,10,13,13,15,15,17,17,18,18,19,19,20,20,21,21,25,25,26,26,27,27,28,28,29,29,31,31],"right_children":[2,4,6,8,10,-1,12,14,16,18,20,-1,-1,22,-1,24,-1,26,28,30,32,34,-1,-1,-1,36,38,40,42,44,-1,46,-1,-1,-1,-1,-1,-1,-1,-1,-1,-1,-1,-1,-1,-1,-1],"split_conditions":[1E0,1E0,1E0,1E0,1E0,-3.2949093E-1,1E0,1E0,1E0,1E0,1E0,-2.3284273E-1,9.2146054E-2,1E0,-3.3634607E-2,1E0,3.4019905E-1,1E0,1E0,1E0,1E0,1E0,-3.1530273E-1,6.55986E-2,-2.1474952E-1,1E0,1E0,1E0,1E0,1E0,4.356942E-1,1E0,1.1829537E-1,-2.307142E-1,8.855276E-2,5.8890674E-2,-2.2939625E-1,3.7753406E-1,-6.6778414E-2,-1.6875957E-1,3.2577625E-1,8.663584E-2,6.068437E-1,1.4759181E-1,-1.9702972E-1,3.4966427E-1,7.3275685E-1],"split_indices":[47,156,61,51,116,0,143,60,134,110,99,0,0,110,0,107,0,72,60,36,86,87,0,0,0,162,75,124,131,138,0,121,0,0,0,0,0,0,0,0,0,0,0,0,0,0,0],"split_type":[0,0,0,0,0,0,0,0,0,0,0,0,0,0,0,0,0,0,0,0,0,0,0,0,0,0,0,0,0,0,0,0,0,0,0,0,0,0,0,0,0,0,0,0,0,0,0],"sum_hessian":[1.3444754E2,6.2424778E1,7.202275E1,2.2978352E1,3.9446426E1,6.88328E1,3.1899529E0,1.8551523E1,4.4268293E0,2.1755081E1,1.7691345E1,2.0517669E0,1.138186E0,1.7470304E1,1.0812182E0,2.791405E0,1.6354246E0,1.2941782E1,8.813298E0,6.8844476E0,1.0806898E1,5.9465313E0,1.1523773E1,1.2259798E0,1.5654252E0,1.0753976E1,2.1878066E0,5.9117475E0,2.9015508E0,5.637065E0,1.2473829E0,9.29754E0,1.5093585E0,4.7589827E0,1.1875486E0,1.9904126E0,8.763563E0,1.0881442E0,1.0996624E0,3.9079034E0,2.0038443E0,1.1290755E0,1.7724752E0,2.6098886E0,3.0271761E0,6.3005414E0,2.9969988E0],"tree_param":{"num_deleted":"0","num_feature":"165","num_nodes":"47","size_leaf_vector":"1"}},{"base_weights":[-4.4102958E-1,1.0291668E-1,-1.0236896E0,-6.6541255E-1,3.9309835E-1,-3.1613058E-1,-3.514363E-1,-8.175478E-1,-1.1515415E-2,1.2272227E-1,9.2513454E-1,-2.1769617E-1,9.523136E-2,-4.208674E-1,-2.9475126E-1,-2.0480014E-1,1.6221614E-1,-1.0371401E-1,7.741648E-1,-5.8324575E-2,1.0960178E0,-6.050997E-1,6.207767E-3,-4.46351E-1,3.1094754E-1,-6.668971E-2,1.1851801E0,-6.9991924E-2,4.5901258E-2,1.241059E0,-2.6937408E-2,-5.3327154E-2,-2.188432E-1,-2.1958973E-1,5.823123E-2,-1.2170719E-1,2.2200164E-1,-1.9727519E-1,1.6670264E-1,5.6846965E-2,4.291896E-1,4.214086E-1,1.144608E-2],"categories":[],"categories_nodes":[],"categories_segments":[],"categories_sizes":[],"default_left":[0,0,0,0,0,0,0,0,0,0,0,0,0,0,0,0,0,0,0,0,0,0,0,0,0,0,0,0,0,0,0,0,0,0,0,0,0,0,0,0,0,0,0],"id":2,"left_children":[1,3,5,7,9,-1,11,13,15,17,19,-1,-1,21,-1,-1,-1,23,25,27,29,31,-1,33,35,37,39,-1,-1,41,-1,-1,-1,-1,-1,-1,-1,-1,-1,-1,-1,-1,-1],"loss_changes":[3.7312843E1,1.4001068E1,7.7765274E-1,1.7081413E0,6.4113965E0,0E0,1.2145004E0,5.020733E-1,1.9528588E0,4.686777E0,2.606802E0,0E0,0E0,4.8914444E-1,0E0,0E0,0E0,3.5565195E0,2.9036684E0,1.5363684E-1,2.337287E0,9.182215E-2,0E0,2.626567E0,3.8279533E0,1.7003809E0,1.0835657E0,0E0,0E0,2.2294807E0,0E0,0E0,0E0,0E0,0E0,0E0,0E0,0E0,0E0,0E0,0E0,0E0,0E0],"parents":[2147483647,0,0,1,1,2,2,3,3,4,4,6,6,7,7,8,8,9,9,10,10,13,13,17,17,18,18,19,19,20,20,21,21,23,23,24,24,25,25,26,26,29,29],"right_children":[2,4,6,8,10,-1,12,14,16,18,20,-1,-1,22,-1,-1,-1,24,26,28,30,32,-1,34,36,38,40,-1,-1,42,-1,-1,-1,-1,-1,-1,-1,-1,-1,-1,-1,-1,-1],"split_conditions":[1E0,1E0,1E0,1E0,1E0,-3.1613058E-1,1E0,1E0,1E0,1E0,1E0,-2.1769617E-1,9.523136E-2,1E0,-2.9475126E-1,-2.0480014E-1,1.6221614E-1,1E0,1E0,1E0,1E0,1E0,6.207767E-3,1E0,1E0,1E0,1E0,-6.9991924E-2,4.5901258E-2,1E0,-2.6937408E-2,-5.3327154E-2,-2.188432E-1,-2.1958973E-1,5.823123E-2,-1.2170719E-1,2.2200164E-1,-1.9727519E-1,1.6670264E-1,5.6846965E-2,4.291896E-1,4.214086E-1,1.144608E-2],"split_indices":[47,159,61,51,84,0,91,110,48,52,98,0,0,87,0,0,0,110,99,124,23,155,0,89,94,113,130,0,0,65,0,0,0,0,0,0,0,0,0,0,0,0,0],"split_type":[0,0,0,0,0,0,0,0,0,0,0,0,0,0,0,0,0,0,0,0,0,0,0,0,0,0,0,0,0,0,0,0,0,0,0,0,0,0,0,0,0,0,0],"sum_hessian":[1.16397575E2,6.062451E1,5.577306E1,1.62652E1,4.435931E1,5.2841248E1,2.931813E0,1.2992179E1,3.2730203E0,3.0228249E1,1.41310625E1,1.8255674E0,1.1062458E0,4.8589525E0,8.133226E0,1.370823E0,1.9021971E0,2.3055227E1,7.173022E0,2.1894035E0,1.1941659E1,3.1671522E0,1.6918004E0,1.2582128E1,1.04731E1,2.6301033E0,4.5429187E0,1.1408081E0,1.0485953E0,1.0598698E1,1.3429618E0,1.2616142E0,1.9055381E0,8.602782E0,3.9793453E0,3.9425232E0,6.530576E0,1.3201348E0,1.3099686E0,1.2488574E0,3.294061E0,9.181893E0,1.4168037E0],"tree_param":{"num_deleted":"0","num_feature":"165","num_nodes":"43","size_leaf_vector":"1"}},{"base_weights":[-3.8293576E-1,6.0964298E-2,-9.8048794E-1,-2.644572E-1,5.249477E-1,-3.0525908E-1,-3.0336034E-1,-4.4730386E-1,1.5551455E-1,3.9953095E-1,4.0088436E-1,-2.0144144E-1,7.800402E-2,-6.083139E-1,1.9758512E-1,-5.375676E-1,8.922383E-1,1.00996055E-1,7.596293E-1,-9.0080583E-1,-2.8388005E-1,5.1685613E-1,-1.1672398E-1,-8.703921E-1,7.689364E-2,1.1789527E0,-6.694192E-2,-2.8958255E-1,7.909587E-1,-5.3044222E-2,1.0232079E0,-5.1634792E-2,-2.950833E-1,2.0153603E-2,-2.6075166E-1,2.7574104E-1,-1.2680867E-2,-5.9196334E-2,-2.9987022E-1,4.560439E-1,1.4405048E-1,-1.7705324E-1,8.0934174E-2,-5.7809167E-2,3.226776E-1,8.860171E-2,-1.0504759E-1,3.7528425E-1,4.423464E-2],"categories":[],"categories_nodes":[],"categories_segments":[],"categories_sizes":[],"default_left":[0,0,0,0,0,0,0,0,0,0,0,0,0,0,0,0,0,0,0,0,0,0,0,0,0,0,0,0,0,0,0,0,0,0,0,0,0,0,0,0,0,0,0,0,0,0,0,0,0],"id":3,"left_children":[1,3,5,7,9,-1,11,13,15,17,-1,-1,-1,19,21,23,25,27,29,31,33,35,-1,37,-1,39,-1,41,43,45,47,-1,-1,-1,-1,-1,-1,-1,-1,-1,-1,-1,-1,-1,-1,-1,-1,-1,-1],"loss_changes":[2.744459E1,9.225022E0,7.9652405E-1,2.8367107E0,2.024467E0,0E0,9.440297E-1,2.7537155E0,6.439564E0,2.4176104E0,0E0,0E0,0E0,1.6934876E0,1.2916011E0,1.9770666E0,2.192689E0,3.9584625E0,2.27419E0,4.5473576E-1,2.3594313E0,9.834765E-1,0E0,2.2920895E-1,0E0,4.524479E-1,0E0,1.768119E0,1.6828611E0,4.6454012E-1,1.386138E0,0E0,0E0,0E0,0E0,0E0,0E0,0E0,0E0,0E0,0E0,0E0,0E0,0E0,0E0,0E0,0E0,0E0,0E0],"parents":[2147483647,0,0,1,1,2,2,3,3,4,4,6,6,7,7,8,8,9,9,13,13,14,14,15,15,16,16,17,17,18,18,19,19,20,20,21,21,23,23,25,25,27,27,28,28,29,29,30,30],"right_children":[2,4,6,8,10,-1,12,14,16,18,-1,-1,-1,20,22,24,26,28,30,32,34,36,-1,38,-1,40,-1,42,44,46,48,-1,-1,-1,-1,-1,-1,-1,-1,-1,-1,-1,-1,-1,-1,-1,-1,-1,-1],"split_conditions":[1E0,1E0,1E0,1E0,1E0,-3.0525908E-1,1E0,1E0,1E0,1E0,4.0088436E-1,-2.0144144E-1,7.800402E-2,1E0,1E0,1E0,1E0,1E0,1E0,1E0,1E0,1E0,-1.1672398E-1,1E0,7.689364E-2,1E0,-6.694192E-2,1E0,1E0,1E0,1E0,-5.1634792E-2,-2.950833E-1,2.0153603E-2,-2.6075166E-1,2.7574104E-1,-1.2680867E-2,-5.9196334E-2,-2.9987022E-1,4.560439E-1,1.4405048E-1,-1.7705324E-1,8.0934174E-2,-5.7809167E-2,3.226776E-1,8.860171E-2,-1.0504759E-1,3.7528425E-1,4.423464E-2],"split_indices":[47,131,61,98,164,0,143,63,137,102,0,0,0,87,93,92,75,40,96,162,118,95,0,152,0,90,0,84,73,123,70,0,0,0,0,0,0,0,0,0,0,0,0,0,0,0,0,0,0],"split_type":[0,0,0,0,0,0,0,0,0,0,0,0,0,0,0,0,0,0,0,0,0,0,0,0,0,0,0,0,0,0,0,0,0,0,0,0,0,0,0,0,0,0,0,0,0,0,0,0,0],"sum_hessian":[1.0224018E2,5.9177395E1,4.3062786E1,3.5035072E1,2.4142324E1,4.0352577E1,2.7102075E0,2.4362906E1,1.0672166E1,2.2202652E1,1.9396719E0,1.5231187E0,1.1870887E0,1.954084E1,4.8220654E0,5.6382437E0,5.033922E0,1.2839062E1,9.363591E0,9.342029E0,1.0198812E1,3.1997247E0,1.6223406E0,3.9048183E0,1.7334256E0,3.9591906E0,1.0747316E0,8.568718E0,4.270344E0,2.4888003E0,6.874791E0,1.2674007E0,8.074628E0,6.9283834E0,3.2704282E0,1.4864029E0,1.7133217E0,1.0357195E0,2.8690987E0,1.8704813E0,2.0887096E0,5.537724E0,3.0309935E0,1.0308518E0,3.2394922E0,1.1483138E0,1.3404865E0,5.115976E0,1.7588152E0],"tree_param":{"num_deleted":"0","num_feature":"165","num_nodes":"49","size_leaf_vector":"1"}},{"base_weights":[-3.2470456E-1,4.669111E-2,-9.395432E-1,-3.452628E-1,2.879508E-1,-9.8520815E-1,-2.647441E-1,-5.498175E-1,2.0461814E-1,1.887601E-1,3.9065295E-1,-3.0431637E-1,-3.8365743E-1,-1.8995354E-1,7.891567E-2,-6.699407E-1,-6.523194E-2,7.283774E-1,-4.5233986E-1,2.5867568E-2,5.4664135E-1,-1.604473E-1,-1.3288677E-2,-3.0907997E-1,-8.5338175E-1,-2.0011616E-1,1.284613E-1,-8.670532E-3,4.5122948E-1,-2.2322784E-1,3.3512946E-2,-1.5943852E-1,4.3922293E-1,9.9242383E-1,9.281609E-2,-1.8268694E-1,5.476078E-2,-2.8145653E-1,-5.239448E-2,-6.933848E-2,6.479866E-2,-1.4573032E-1,3.8147736E-2,3.0635402E-1,3.574699E-3,3.9416596E-1,8.6053624E-4,-7.965592E-2,2.1713924E-1],"categories":[],"categories_nodes":[],"categories_segments":[],"categories_sizes":[],"default_left":[0,0,0,0,0,0,0,0,0,0,0,0,0,0,0,0,0,0,0,0,0,0,0,0,0,0,0,0,0,0,0,0,0,0,0,0,0,0,0,0,0,0,0,0,0,0,0,0,0],"id":4,"left_children":[1,3,5,7,9,11,13,15,17,19,-1,-1,21,-1,-1,23,25,27,29,31,33,-1,-1,35,37,-1,-1,39,-1,-1,-1,41,43,45,47,-1,-1,-1,-1,-1,-1,-1,-1,-1,-1,-1,-1,-1,-1],"loss_changes":[2.0809658E1,5.550574E0,7.9590607E-1,2.6341326E0,3.3987625E0,1.6817093E-1,8.551463E-1,9.232321E-1,2.6717477E0,1.9778256E0,0E0,0E0,1.341725E-1,0E0,0E0,6.102667E-1,1.594524E0,2.397595E0,6.815607E-1,1.9490732E0,2.060085E0,0E0,0E0,9.983115E-1,3.073311E-1,0E0,0E0,2.065016E-1,0E0,0E0,0E0,1.7145303E0,1.9423269E0,1.6705818E0,1.633534E0,0E0,0E0,0E0,0E0,0E0,0E0,0E0,0E0,0E0,0E0,0E0,0E0,0E0,0E0],"parents":[2147483647,0,0,1,1,2,2,3,3,4,4,5,5,6,6,7,7,8,8,9,9,12,12,15,15,16,16,17,17,18,18,19,19,20,20,23,23,24,24,27,27,31,31,32,32,33,33,34,34],"right_children":[2,4,6,8,10,12,14,16,18,20,-1,-1,22,-1,-1,24,26,28,30,32,34,-1,-1,36,38,-1,-1,40,-1,-1,-1,42,44,46,48,-1,-1,-1,-1,-1,-1,-1,-1,-1,-1,-1,-1,-1,-1],"split_conditions":[1E0,1E0,1E0,1E0,1E0,1E0,1E0,1E0,1E0,1E0,3.9065295E-1,-3.0431637E-1,1E0,-1.8995354E-1,7.891567E-2,1E0,1E0,1E0,1E0,1E0,1E0,-1.604473E-1,-1.3288677E-2,1E0,1E0,-2.0011616E-1,1.284613E-1,1E0,4.5122948E-1,-2.2322784E-1,3.3512946E-2,1E0,1E0,1E0,1E0,-1.8268694E-1,5.476078E-2,-2.8145653E-1,-5.239448E-2,-6.933848E-2,6.479866E-2,-1.4573032E-1,3.8147736E-2,3.0635402E-1,3.574699E-3,3.9416596E-1,8.6053624E-4,-7.965592E-2,2.1713924E-1],"split_indices":[47,149,61,73,164,23,91,51,93,84,0,0,51,0,0,103,99,78,114,52,107,0,0,125,119,0,0,142,0,0,0,143,70,86,101,0,0,0,0,0,0,0,0,0,0,0,0,0,0],"split_type":[0,0,0,0,0,0,0,0,0,0,0,0,0,0,0,0,0,0,0,0,0,0,0,0,0,0,0,0,0,0,0,0,0,0,0,0,0,0,0,0,0,0,0,0,0,0,0,0,0],"sum_hessian":[8.993908E1,5.664594E1,3.329314E1,2.1418333E1,3.5227608E1,3.0752085E1,2.5410542E0,1.56111355E1,5.807197E0,3.316974E1,2.0578697E0,2.867485E1,2.0772333E0,1.3788605E0,1.1621938E0,1.220352E1,3.4076154E0,3.1706703E0,2.6365268E0,2.3531477E1,9.638261E0,1.0386167E0,1.0386167E0,5.017709E0,7.185811E0,1.3766831E0,2.0309322E0,2.1329136E0,1.0377567E0,1.5273254E0,1.1092014E0,1.6671825E1,6.8596516E0,4.2635117E0,5.3747497E0,2.9683733E0,2.0493355E0,6.047876E0,1.1379352E0,1.0572712E0,1.0756423E0,7.470607E0,9.201219E0,2.3158514E0,4.5438004E0,2.9707062E0,1.2928052E0,3.7973955E0,1.5773543E0],"tree_param":{"num_deleted":"0","num_feature":"165","num_nodes":"49","size_leaf_vector":"1"}},{"base_weights":[-2.69851E-1,4.289676E-2,-8.992644E-1,-1.9535576E-1,3.4651315E-1,-9.5467466E-1,-2.3256753E-1,-3.3548975E-1,1.9339158E-1,4.8518178E-1,-3.7054136E-2,-2.9730353E-1,-1.03834175E-1,-1.8032277E-1,6.2450446E-2,-4.3599895E-1,1.7412716E-1,-5.0274974E-1,8.811323E-1,5.9436196E-1,-8.951906E-2,-2.3728147E-1,3.2748076E-1,-6.509264E-1,-5.084197E-2,1.3258248E-2,-2.3171754E-1,3.9796445E-1,2.2884661E-2,-9.247092E-2,6.7482024E-1,-3.9575535E-1,2.8367132E-1,-2.709139E-1,8.470726E-4,1.8580672E-1,-1.3258976E-1,2.4738725E-1,3.1324565E-2,-1.965815E-1,2.4808865E-2],"categories":[],"categories_nodes":[],"categories_segments":[],"categories_sizes":[],"default_left":[0,0,0,0,0,0,0,0,0,0,0,0,0,0,0,0,0,0,0,0,0,0,0,0,0,0,0,0,0,0,0,0,0,0,0,0,0,0,0,0,0],"id":5,"left_children":[1,3,5,7,9,11,13,15,17,19,21,-1,-1,-1,-1,23,-1,25,27,29,-1,-1,31,33,35,-1,-1,-1,-1,-1,37,39,-1,-1,-1,-1,-1,-1,-1,-1,-1],"loss_changes":[1.6025888E1,4.0615487E0,7.755947E-1,1.7849952E0,1.3283505E0,2.0122528E-1,6.764071E-1,2.4232905E0,4.752161E0,1.7314458E0,2.3120894E0,0E0,0E0,0E0,0E0,1.7727265E0,0E0,7.8770804E-1,1.6521647E0,1.3901577E0,0E0,0E0,2.9414368E0,2.2963371E0,2.6061285E0,0E0,0E0,0E0,0E0,0E0,1.2178054E0,4.703074E-1,0E0,0E0,0E0,0E0,0E0,0E0,0E0,0E0,0E0],"parents":[2147483647,0,0,1,1,2,2,3,3,4,4,5,5,6,6,7,7,8,8,9,9,10,10,15,15,17,17,18,18,19,19,22,22,23,23,24,24,30,30,31,31],"right_children":[2,4,6,8,10,12,14,16,18,20,22,-1,-1,-1,-1,24,-1,26,28,30,-1,-1,32,34,36,-1,-1,-1,-1,-1,38,40,-1,-1,-1,-1,-1,-1,-1,-1,-1],"split_conditions":[1E0,1E0,1E0,1E0,1E0,1E0,1E0,1E0,1E0,1E0,1E0,-2.9730353E-1,-1.03834175E-1,-1.8032277E-1,6.2450446E-2,1E0,1.7412716E-1,1E0,1E0,1E0,-8.951906E-2,-2.3728147E-1,1E0,1E0,1E0,1.3258248E-2,-2.3171754E-1,3.9796445E-1,2.2884661E-2,-9.247092E-2,1E0,1E0,2.8367132E-1,-2.709139E-1,8.470726E-4,1.8580672E-1,-1.3258976E-1,2.4738725E-1,3.1324565E-2,-1.965815E-1,2.4808865E-2],"split_indices":[47,131,61,111,51,23,109,42,156,23,82,0,0,0,0,74,0,143,70,140,0,0,138,92,139,0,0,0,0,0,79,41,0,0,0,0,0,0,0,0,0],"split_type":[0,0,0,0,0,0,0,0,0,0,0,0,0,0,0,0,0,0,0,0,0,0,0,0,0,0,0,0,0,0,0,0,0,0,0,0,0,0,0,0,0],"sum_hessian":[8.021668E1,5.4211502E1,2.6005182E1,3.0575222E1,2.3636282E1,2.3610895E1,2.394286E0,2.2574617E1,8.000604E0,1.7165596E1,6.4706874E0,2.1687487E1,1.92341E0,1.1058556E0,1.2884302E0,2.0814482E1,1.7601364E0,4.109694E0,3.8909097E0,1.5278271E1,1.8873252E0,1.7277853E0,4.742902E0,1.2916638E1,7.897843E0,1.6331338E0,2.4765604E0,2.0874767E0,1.803433E0,1.0187466E0,1.4259523E1,2.351312E0,2.3915899E0,9.046504E0,3.8701344E0,2.69551E0,5.202333E0,1.0940556E1,3.318968E0,1.2848375E0,1.0664744E0],"tree_param":{"num_deleted":"0","num_feature":"165","num_nodes":"41","size_leaf_vector":"1"}},{"base_weights":[-2.3112807E-1,2.4538506E-2,-8.55483E-1,-3.5880152E-2,3.176575E-1,-9.325774E-1,-1.910768E-1,-3.6043265E-1,8.598875E-2,-2.937107E-1,-5.159199E-2,1.2063826E-1,-1.8686426E-1,-5.771509E-1,1.4711179E-1,-1.1478602E-2,5.773733E-1,-7.0691323E-1,9.380734E-3,-6.658595E-2,1.5558091E-1,-3.5208938E-1,1.8908489E-1,1.1297905E0,-2.0736717E-1,-2.6384221E-2,-2.362296E-1,-1.7055696E-1,1.3704386E-1,-2.1412069E-2,1.5883344E-1,1.283933E-1,4.4602457E-1,-2.0303279E-1,1.1725962E-1],"categories":[],"categories_nodes":[],"categories_segments":[],"categories_sizes":[],"default_left":[0,0,0,0,0,0,0,0,0,0,0,0,0,0,0,0,0,0,0,0,0,0,0,0,0,0,0,0,0,0,0,0,0,0,0],"id":6,"left_children":[1,3,5,7,-1,9,11,13,15,-1,-1,-1,-1,17,19,21,23,25,-1,-1,-1,27,29,31,33,-1,-1,-1,-1,-1,-1,-1,-1,-1,-1],"loss_changes":[1.1798571E1,3.3699992E0,9.2119694E-1,2.061768E0,0E0,5.021076E-1,1.1442394E0,1.6477975E0,1.8330371E0,0E0,0E0,0E0,0E0,8.2426214E-1,8.07283E-1,2.307475E0,2.9790328E0,3.5021877E-1,0E0,0E0,0E0,2.449254E0,1.9257139E0,3.3343077E-1,1.2363349E0,0E0,0E0,0E0,0E0,0E0,0E0,0E0,0E0,0E0,0E0],"parents":[2147483647,0,0,1,1,2,2,3,3,5,5,6,6,7,7,8,8,13,13,14,14,15,15,16,16,17,17,21,21,22,22,23,23,24,24],"right_children":[2,4,6,8,-1,10,12,14,16,-1,-1,-1,-1,18,20,22,24,26,-1,-1,-1,28,30,32,34,-1,-1,-1,-1,-1,-1,-1,-1,-1,-1],"split_conditions":[1E0,1E0,1E0,1E0,3.176575E-1,1E0,1E0,1E0,1E0,-2.937107E-1,-5.159199E-2,1.2063826E-1,-1.8686426E-1,1E0,1E0,1E0,1E0,1E0,9.380734E-3,-6.658595E-2,1.5558091E-1,1E0,1E0,1E0,1E0,-2.6384221E-2,-2.362296E-1,-1.7055696E-1,1.3704386E-1,-2.1412069E-2,1.5883344E-1,1.283933E-1,4.4602457E-1,-2.0303279E-1,1.1725962E-1],"split_indices":[47,164,36,156,0,46,126,51,67,0,0,0,0,96,134,143,99,162,0,0,0,72,111,148,150,0,0,0,0,0,0,0,0,0,0],"split_type":[0,0,0,0,0,0,0,0,0,0,0,0,0,0,0,0,0,0,0,0,0,0,0,0,0,0,0,0,0,0,0,0,0,0,0],"sum_hessian":[7.278202E1,5.2318756E1,2.0463264E1,5.0343315E1,1.9754392E0,1.7974024E1,2.4892402E0,1.3208868E1,3.713445E1,1.6668703E1,1.3053204E0,1.0775918E0,1.4116485E0,9.160324E0,4.0485435E0,3.1802902E1,5.331545E0,7.416638E0,1.7436864E0,2.2328305E0,1.8157127E0,1.1506414E1,2.0296488E1,2.8708873E0,2.4606574E0,1.0945837E0,6.3220544E0,9.312014E0,2.1944008E0,1.1945537E1,8.350952E0,1.7092665E0,1.1616207E0,1.3052155E0,1.1554419E0],"tree_param":{"num_deleted":"0","num_feature":"165","num_nodes":"35","size_leaf_vector":"1"}},{"base_weights":[-1.8581587E-1,2.7022325E-2,-8.0438715E-1,-2.3832355E-2,2.7929115E-1,-8.905391E-1,-2.8411193E-2,-1.8885928E-1,1.3908039E-1,-2.8425848E-1,-6.2166687E-2,-7.919759E-2,-2.4873674E-1,-5.2037466E-1,2.3572415E-1,-3.400324E-1,1.6720356E-1,-1.98075E-1,-2.4478301E-2,-2.6495496E-2,5.383615E-1,-2.3008633E-2,-2.0748629E-1,-3.494546E-2,2.5140744E-1,1.3272691E-1,-7.796957E-2,2.7033624E-1,3.1523965E-2],"categories":[],"categories_nodes":[],"categories_segments":[],"categories_sizes":[],"default_left":[0,0,0,0,0,0,0,0,0,0,0,0,0,0,0,0,0,0,0,0,0,0,0,0,0,0,0,0,0],"id":7,"left_children":[1,3,5,7,-1,9,-1,11,13,-1,-1,15,-1,17,19,21,23,-1,-1,25,27,-1,-1,-1,-1,-1,-1,-1,-1],"loss_changes":[8.8976E0,2.3724573E0,9.7285175E-1,1.3537974E0,0E0,3.9946938E-1,0E0,1.6864145E0,1.7430013E0,0E0,0E0,1.4971828E0,0E0,1.6470957E-1,1.8285887E0,9.854102E-1,2.418283E0,0E0,0E0,1.5599475E0,1.5808616E0,0E0,0E0,0E0,0E0,0E0,0E0,0E0,0E0],"parents":[2147483647,0,0,1,1,2,2,3,3,5,5,7,7,8,8,11,11,13,13,14,14,15,15,16,16,19,19,20,20],"right_children":[2,4,6,8,-1,10,-1,12,14,-1,-1,16,-1,18,20,22,24,-1,-1,26,28,-1,-1,-1,-1,-1,-1,-1,-1],"split_conditions":[1E0,1E0,1E0,1E0,2.7929115E-1,1E0,-2.8411193E-2,1E0,1E0,-2.8425848E-1,-6.2166687E-2,1E0,-2.4873674E-1,1E0,1E0,1E0,1E0,-1.98075E-1,-2.4478301E-2,1E0,1E0,-2.3008633E-2,-2.0748629E-1,-3.494546E-2,2.5140744E-1,1.3272691E-1,-7.796957E-2,2.7033624E-1,3.1523965E-2],"split_indices":[47,164,61,81,0,23,0,86,156,0,0,102,0,79,110,151,84,0,0,153,93,0,0,0,0,0,0,0,0],"split_type":[0,0,0,0,0,0,0,0,0,0,0,0,0,0,0,0,0,0,0,0,0,0,0,0,0,0,0,0,0],"sum_hessian":[6.64173E1,5.012618E1,1.6291117E1,4.837814E1,1.7480417E0,1.4300293E1,1.990823E0,2.3954006E1,2.4424131E1,1.2842554E1,1.457739E0,2.1410583E1,2.543423E0,2.5614498E0,2.1862682E1,1.0216076E1,1.1194508E1,1.5595531E0,1.0018965E0,1.2202392E1,9.660292E0,6.5376034E0,3.6784725E0,8.448159E0,2.7463484E0,3.7576177E0,8.444774E0,4.670348E0,4.9899435E0],"tree_param":{"num_deleted":"0","num_feature":"165","num_nodes":"29","size_leaf_vector":"1"}},{"base_weights":[-1.5301488E-1,1.9488296E-2,-7.502581E-1,-2.3522941E-2,2.4892345E-1,-8.6184555E-1,-1.707395E-2,-4.7119546E-1,3.3919264E-2,-2.799419E-1,-1.4774425E-2,-6.10792E-1,-6.264296E-3,-3.906491E-2,2.9077196E-1,-2.960628E-2,-2.275525E-1,1.3359269E-2,-2.0942709E-1,8.0089396E-1,-1.4007063E-1,-9.526357E-3,1.7438443E-1,7.452226E-2,2.9568017E-1,1.00275464E-1,-1.7654058E-1],"categories":[],"categories_nodes":[],"categories_segments":[],"categories_sizes":[],"default_left":[0,0,0,0,0,0,0,0,0,0,0,0,0,0,0,0,0,0,0,0,0,0,0,0,0,0,0],"id":8,"left_children":[1,3,5,7,-1,9,-1,11,13,-1,-1,15,-1,17,19,-1,-1,21,-1,23,25,-1,-1,-1,-1,-1,-1],"loss_changes":[6.4802265E0,1.7504354E0,1.0410252E0,1.2538208E0,0E0,6.530361E-1,0E0,3.355826E-1,8.285988E-1,0E0,0E0,2.4244869E-1,0E0,1.2126677E0,2.2583246E0,0E0,0E0,8.702289E-1,0E0,2.2662282E-1,1.5036316E0,0E0,0E0,0E0,0E0,0E0,0E0],"parents":[2147483647,0,0,1,1,2,2,3,3,5,5,7,7,8,8,11,11,13,13,14,14,17,17,19,19,20,20],"right_children":[2,4,6,8,-1,10,-1,12,14,-1,-1,16,-1,18,20,-1,-1,22,-1,24,26,-1,-1,-1,-1,-1,-1],"split_conditions":[1E0,1E0,1E0,1E0,2.4892345E-1,1E0,-1.707395E-2,1E0,1E0,-2.799419E-1,-1.4774425E-2,1E0,-6.264296E-3,1E0,1E0,-2.960628E-2,-2.275525E-1,1E0,-2.0942709E-1,1E0,1E0,-9.526357E-3,1.7438443E-1,7.452226E-2,2.9568017E-1,1.00275464E-1,-1.7654058E-1],"split_indices":[47,164,36,161,0,46,0,91,52,0,0,162,0,117,70,0,0,69,0,99,51,0,0,0,0,0,0],"split_type":[0,0,0,0,0,0,0,0,0,0,0,0,0,0,0,0,0,0,0,0,0,0,0,0,0,0,0],"sum_hessian":[6.1756813E1,4.866745E1,1.3089365E1,4.713626E1,1.5311882E0,1.1065456E1,2.0239086E0,4.5412607E0,4.2595E1,1.0036549E1,1.0289073E0,3.19458E0,1.3466806E0,3.3830143E1,8.764857E0,1.0886225E0,2.1059575E0,3.2244858E1,1.5852866E0,3.6199262E0,5.144931E0,3.0746542E1,1.4983137E0,1.494504E0,2.1254222E0,2.6238976E0,2.5210335E0],"tree_param":{"num_deleted":"0","num_feature":"165","num_nodes":"27","size_leaf_vector":"1"}},{"base_weights":[-1.2185434E-1,1.7321942E-2,-6.8924516E-1,-1.9133033E-2,2.2382872E-1,-8.129959E-1,4.9438416E-3,-4.1373014E-1,2.8587298E-2,-2.695157E-1,-2.4384135E-2,-5.488138E-1,-5.195697E-3,8.798331E-2,-2.649776E-1,-2.5345972E-2,-2.0926185E-1,-9.273716E-2,2.681526E-1,-5.76751E-1,2.0631017E-1,2.8971795E-2,-1.5585291E-1,1.1274354E-1,-2.1465091E-2,-2.4032411E-1,-4.14642E-3,-8.883894E-2,1.515692E-1],"categories":[],"categories_nodes":[],"categories_segments":[],"categories_sizes":[],"default_left":[0,0,0,0,0,0,0,0,0,0,0,0,0,0,0,0,0,0,0,0,0,0,0,0,0,0,0,0,0],"id":9,"left_children":[1,3,5,7,-1,9,-1,11,13,-1,-1,15,-1,17,19,-1,-1,21,23,25,27,-1,-1,-1,-1,-1,-1,-1,-1],"loss_changes":[4.6877575E0,1.3034389E0,1.0341415E0,9.003835E-1,0E0,5.495372E-1,0E0,2.6656848E-1,7.7364457E-1,0E0,0E0,2.0435846E-1,0E0,1.2146635E0,1.2196305E0,0E0,0E0,1.5840747E0,7.0550525E-1,5.9151196E-1,7.081568E-1,0E0,0E0,0E0,0E0,0E0,0E0,0E0,0E0],"parents":[2147483647,0,0,1,1,2,2,3,3,5,5,7,7,8,8,11,11,13,13,14,14,17,17,18,18,19,19,20,20],"right_children":[2,4,6,8,-1,10,-1,12,14,-1,-1,16,-1,18,20,-1,-1,22,24,26,28,-1,-1,-1,-1,-1,-1,-1,-1],"split_conditions":[1E0,1E0,1E0,1E0,2.2382872E-1,1E0,4.9438416E-3,1E0,1E0,-2.695157E-1,-2.4384135E-2,1E0,-5.195697E-3,1E0,1E0,-2.5345972E-2,-2.0926185E-1,1E0,1E0,1E0,1E0,2.8971795E-2,-1.5585291E-1,1.1274354E-1,-2.1465091E-2,-2.4032411E-1,-4.14642E-3,-8.883894E-2,1.515692E-1],"split_indices":[47,164,61,161,0,23,0,91,112,0,0,162,0,116,111,0,0,91,139,142,149,0,0,0,0,0,0,0,0],"split_type":[0,0,0,0,0,0,0,0,0,0,0,0,0,0,0,0,0,0,0,0,0,0,0,0,0,0,0,0,0],"sum_hessian":[5.8212044E1,4.752422E1,1.0687827E1,4.6187553E1,1.3366636E0,8.963969E0,1.7238579E0,4.1555576E0,4.2031998E1,7.8232336E0,1.140736E0,2.812646E0,1.3429117E0,3.5541332E1,6.490666E0,1.0627546E0,1.7498914E0,1.7985792E1,1.7555538E1,3.7717464E0,2.7189198E0,1.2995084E1,4.990708E0,1.3250024E1,4.3055143E0,2.3944817E0,1.3772647E0,1.0176837E0,1.7012359E0],"tree_param":{"num_deleted":"0","num_feature":"165","num_nodes":"29","size_leaf_vector":"1"}},{"base_weights":[-1.0524739E-1,-1.513186E-1,3.2871896E-1,-2.6401209E-2,-7.27361E-1,-1.6363293E-1,8.3670795E-2,-2.662584E-1,3.993685E-3,6.428713E-2,-6.396785E-1,3.0376402E-1,-6.849067E-2,2.9139555E-1,-5.5616E-1,-2.832393E-1,1.7017737E-1,5.3235734E-1,-2.6811048E-1,-4.374918E-1,1.91883E-1,1.839517E-1,-7.81196E-3,-2.4264558E-1,1.3646098E-2,-2.730892E-2,2.5620812E-1,7.332727E-2,-1.7387076E-1,-2.2808553E-1,-4.1825427E-3,-3.1069947E-2,1.8319738E-1],"categories":[],"categories_nodes":[],"categories_segments":[],"categories_sizes":[],"default_left":[0,0,0,0,0,0,0,0,0,0,0,0,0,0,0,0,0,0,0,0,0,0,0,0,0,0,0,0,0,0,0,0,0],"id":10,"left_children":[1,3,-1,5,7,9,11,-1,-1,13,15,17,19,21,23,-1,-1,25,27,29,31,-1,-1,-1,-1,-1,-1,-1,-1,-1,-1,-1,-1],"loss_changes":[3.292059E0,3.959538E0,0E0,7.157399E-1,1.1763E0,2.3222985E0,9.0668017E-1,0E0,0E0,2.2934802E0,3.0704043E0,1.5802635E0,1.6649795E0,1.214031E0,7.051817E-1,0E0,0E0,1.7202616E0,7.4912536E-1,9.618323E-1,1.3429573E0,0E0,0E0,0E0,0E0,0E0,0E0,0E0,0E0,0E0,0E0,0E0,0E0],"parents":[2147483647,0,0,1,1,3,3,4,4,5,5,6,6,9,9,10,10,11,11,12,12,13,13,14,14,17,17,18,18,19,19,20,20],"right_children":[2,4,-1,6,8,10,12,-1,-1,14,16,18,20,22,24,-1,-1,26,28,30,32,-1,-1,-1,-1,-1,-1,-1,-1,-1,-1,-1,-1],"split_conditions":[1E0,1E0,3.2871896E-1,1E0,1E0,1E0,1E0,-2.662584E-1,3.993685E-3,1E0,1E0,1E0,1E0,1E0,1E0,-2.832393E-1,1.7017737E-1,1E0,1E0,1E0,1E0,1.839517E-1,-7.81196E-3,-2.4264558E-1,1.3646098E-2,-2.730892E-2,2.5620812E-1,7.332727E-2,-1.7387076E-1,-2.2808553E-1,-4.1825427E-3,-3.1069947E-2,1.8319738E-1],"split_indices":[164,47,0,96,61,132,142,0,0,104,67,80,83,106,73,0,0,123,152,40,102,0,0,0,0,0,0,0,0,0,0,0,0],"split_type":[0,0,0,0,0,0,0,0,0,0,0,0,0,0,0,0,0,0,0,0,0,0,0,0,0,0,0,0,0,0,0,0,0],"sum_hessian":[5.5501507E1,5.4292763E1,1.2087442E0,4.5476757E1,8.816007E0,2.0024593E1,2.5452162E1,7.085526E0,1.7304803E0,1.4126225E1,5.8983684E0,9.996478E0,1.5455685E1,1.0729241E1,3.3969843E0,4.884091E0,1.0142775E0,7.1911044E0,2.8053732E0,6.11263E0,9.343055E0,4.8655267E0,5.8637147E0,2.1498325E0,1.2471519E0,2.6916904E0,4.499414E0,1.1417474E0,1.6636258E0,3.0177393E0,3.0948906E0,5.919492E0,3.4235632E0],"tree_param":{"num_deleted":"0","num_feature":"165","num_nodes":"33","size_leaf_vector":"1"}},{"base_weights":[-8.832206E-2,-3.5165602E-3,-5.506629E-1,-1.5761226E-1,7.617261E-2,-2.516251E-1,-2.2352256E-2,8.690529E-2,-6.721011E-1,-5.520425E-2,2.8449625E-1,2.0996857E-1,-1.896389E-1,2.1187405E-1,-4.7099166E-2,-2.4796565E-1,-1.8115088E-2,-3.6181656E-1,1.6015242E-1,4.9055445E-1,-1.550259E-1,-5.654746E-1,2.3011093E-1,9.0103224E-2,-5.145395E-1,3.768198E-1,-2.6909113E-1,-7.6788336E-2,6.478413E-1,1.3846561E-1,-1.6983068E-1,-2.1709503E-1,-1.9203046E-2,-3.7154008E-3,1.8378997E-1,-2.1687563E-1,8.887585E-3,-1.1860043E-2,1.711664E-1,-2.3133993E-1,9.0122E-2,6.256884E-2,2.9361808E-1],"categories":[],"categories_nodes":[],"categories_segments":[],"categories_sizes":[],"default_left":[0,0,0,0,0,0,0,0,0,0,0,0,0,0,0,0,0,0,0,0,0,0,0,0,0,0,0,0,0,0,0,0,0,0,0,0,0,0,0,0,0,0,0],"id":11,"left_children":[1,3,5,7,9,-1,11,13,15,17,19,-1,-1,-1,21,-1,-1,23,25,27,29,31,33,-1,35,37,39,-1,41,-1,-1,-1,-1,-1,-1,-1,-1,-1,-1,-1,-1,-1,-1],"loss_changes":[2.087323E0,5.7727474E-1,1.2372885E0,2.0733397E0,8.645752E-1,0E0,2.1774244E0,1.0078161E0,4.4841385E-1,1.3692007E0,1.1771348E0,0E0,0E0,0E0,1.6520557E0,0E0,0E0,1.0141206E0,1.2507458E0,1.1658969E0,1.437441E0,2.6933503E-1,7.136364E-1,0E0,8.464092E-1,7.1861255E-1,1.5836937E0,0E0,8.595879E-1,0E0,0E0,0E0,0E0,0E0,0E0,0E0,0E0,0E0,0E0,0E0,0E0,0E0,0E0],"parents":[2147483647,0,0,1,1,2,2,3,3,4,4,6,6,7,7,8,8,9,9,10,10,14,14,17,17,18,18,19,19,20,20,21,21,22,22,24,24,25,25,26,26,28,28],"right_children":[2,4,6,8,10,-1,12,14,16,18,20,-1,-1,-1,22,-1,-1,24,26,28,30,32,34,-1,36,38,40,-1,42,-1,-1,-1,-1,-1,-1,-1,-1,-1,-1,-1,-1,-1,-1],"split_conditions":[1E0,1E0,1E0,1E0,1E0,-2.516251E-1,1E0,1E0,1E0,1E0,1E0,2.0996857E-1,-1.896389E-1,2.1187405E-1,1E0,-2.4796565E-1,-1.8115088E-2,1E0,1E0,1E0,1E0,1E0,1E0,9.0103224E-2,1E0,1E0,1E0,-7.6788336E-2,1E0,1.3846561E-1,-1.6983068E-1,-2.1709503E-1,-1.9203046E-2,-3.7154008E-3,1.8378997E-1,-2.1687563E-1,8.887585E-3,-1.1860043E-2,1.711664E-1,-2.3133993E-1,9.0122E-2,6.256884E-2,2.9361808E-1],"split_indices":[47,149,99,132,132,0,126,162,90,130,86,0,0,0,116,0,0,160,55,96,125,138,119,0,52,134,102,0,99,0,0,0,0,0,0,0,0,0,0,0,0,0,0],"split_type":[0,0,0,0,0,0,0,0,0,0,0,0,0,0,0,0,0,0,0,0,0,0,0,0,0,0,0,0,0,0,0,0,0,0,0,0,0,0,0,0,0,0,0],"sum_hessian":[5.228514E1,4.5032585E1,7.2525573E0,1.5016738E1,3.0015846E1,4.3130474E0,2.9395103E0,1.0742371E1,4.274368E0,1.885817E1,1.1157676E1,1.278001E0,1.6615093E0,1.1512415E0,9.591129E0,3.1323016E0,1.1420662E0,7.5000105E0,1.1358159E1,7.517288E0,3.6403878E0,2.9795578E0,6.611571E0,1.2244725E0,6.275538E0,7.6292877E0,3.7288716E0,1.1990409E0,6.3182473E0,1.4070896E0,2.233298E0,1.9282593E0,1.0512986E0,4.6386046E0,1.9729662E0,4.30031E0,1.9752278E0,2.67545E0,4.953838E0,1.7936329E0,1.9352387E0,3.414942E0,2.9033053E0],"tree_param":{"num_deleted":"0","num_feature":"165","num_nodes":"43","size_leaf_vector":"1"}},{"base_weights":[-7.685189E-2,-6.9506145E-3,-4.9077725E-1,1.9227605E-2,-1.3384843E-1,-6.835332E-1,5.2324742E-2,4.9590196E-2,-3.3720815E-1,-2.4000977E-1,-1.7830841E-2,1.04355484E-1,-2.48662E-1,-1.9977954E-1,4.318141E-2,2.7320752E-1,-5.8996845E-2,2.59131E-1,-6.4819545E-1,-2.036859E-2,1.6976716E-1,-6.263646E-2,9.115966E-2,1.8062277E-1,-8.830603E-2,-2.2405605E-1,-6.516436E-2],"categories":[],"categories_nodes":[],"categories_segments":[],"categories_sizes":[],"default_left":[0,0,0,0,0,0,0,0,0,0,0,0,0,0,0,0,0,0,0,0,0,0,0,0,0,0,0],"id":12,"left_children":[1,3,5,7,-1,9,-1,11,13,-1,-1,15,17,-1,-1,19,21,23,25,-1,-1,-1,-1,-1,-1,-1,-1],"loss_changes":[1.4619622E0,5.184218E-1,1.0555696E0,4.7999555E-1,0E0,3.7889576E-1,0E0,6.845109E-1,6.476015E-1,0E0,0E0,9.7511125E-1,1.4969257E0,0E0,0E0,1.7629669E0,1.0686796E0,8.6033547E-1,5.7942867E-3,0E0,0E0,0E0,0E0,0E0,0E0,0E0,0E0],"parents":[2147483647,0,0,1,1,2,2,3,3,5,5,7,7,8,8,11,11,12,12,15,15,16,16,17,17,18,18],"right_children":[2,4,6,8,-1,10,-1,12,14,-1,-1,16,18,-1,-1,20,22,24,26,-1,-1,-1,-1,-1,-1,-1,-1],"split_conditions":[1E0,1E0,1E0,1E0,-1.3384843E-1,1E0,5.2324742E-2,1E0,1E0,-2.4000977E-1,-1.7830841E-2,1E0,1E0,-1.9977954E-1,4.318141E-2,1E0,1E0,1E0,1E0,-2.036859E-2,1.6976716E-1,-6.263646E-2,9.115966E-2,1.8062277E-1,-8.830603E-2,-2.2405605E-1,-6.516436E-2],"split_indices":[47,20,36,21,0,61,0,112,96,0,0,142,127,0,0,143,40,75,99,0,0,0,0,0,0,0,0],"split_type":[0,0,0,0,0,0,0,0,0,0,0,0,0,0,0,0,0,0,0,0,0,0,0,0,0,0,0],"sum_hessian":[4.964554E1,4.3342846E1,6.302692E0,4.1807236E1,1.5356085E0,4.8652854E0,1.4374067E0,3.9318783E1,2.4884558E0,3.8623936E0,1.0028918E0,3.3768326E1,5.5504546E0,1.2502323E0,1.2382234E0,1.6273958E1,1.749437E1,2.5988383E0,2.9516163E0,7.8700066E0,8.403951E0,1.2683265E1,4.8111043E0,1.5504012E0,1.0484371E0,1.8054144E0,1.1462018E0],"tree_param":{"num_deleted":"0","num_feature":"165","num_nodes":"27","size_leaf_vector":"1"}}]},"name":"gbtree"},"learner_model_param":{"base_score":"1.5417819E-1","boost_from_average":"1","num_class":"0","num_feature":"165","num_target":"1"},"objective":{"name":"binary:logistic","reg_loss_param":{"scale_pos_weight":"1"}}},"version":[2,1,1]}